{"learner":{"attributes":{"best_iteration":"497","best_score":"1.057157833964771","scikit_learn":"{\"_estimator_type\": \"classifier\"}"},"feature_names":[],"feature_types":[],"gradient_booster":{"model":{"gbtree_model_param":{"num_parallel_tree":"1","num_trees":"1644"},"iteration_indptr":[0,3,6,9,12,15,18,21,24,27,30,33,36,39,42,45,48,51,54,57,60,63,66,69,72,75,78,81,84,87,90,93,96,99,102,105,108,111,114,117,120,123,126,129,132,135,138,141,144,147,150,153,156,159,162,165,168,171,174,177,180,183,186,189,192,195,198,201,204,207,210,213,216,219,222,225,228,231,234,237,240,243,246,249,252,255,258,261,264,267,270,273,276,279,282,285,288,291,294,297,300,303,306,309,312,315,318,321,324,327,330,333,336,339,342,345,348,351,354,357,360,363,366,369,372,375,378,381,384,387,390,393,396,399,402,405,408,411,414,417,420,423,426,429,432,435,438,441,444,447,450,453,456,459,462,465,468,471,474,477,480,483,486,489,492,495,498,501,504,507,510,513,516,519,522,525,528,531,534,537,540,543,546,549,552,555,558,561,564,567,570,573,576,579,582,585,588,591,594,597,600,603,606,609,612,615,618,621,624,627,630,633,636,639,642,645,648,651,654,657,660,663,666,669,672,675,678,681,684,687,690,693,696,699,702,705,708,711,714,717,720,723,726,729,732,735,738,741,744,747,750,753,756,759,762,765,768,771,774,777,780,783,786,789,792,795,798,801,804,807,810,813,816,819,822,825,828,831,834,837,840,843,846,849,852,855,858,861,864,867,870,873,876,879,882,885,888,891,894,897,900,903,906,909,912,915,918,921,924,927,930,933,936,939,942,945,948,951,954,957,960,963,966,969,972,975,978,981,984,987,990,993,996,999,1002,1005,1008,1011,1014,1017,1020,1023,1026,1029,1032,1035,1038,1041,1044,1047,1050,1053,1056,1059,1062,1065,1068,1071,1074,1077,1080,1083,1086,1089,1092,1095,1098,1101,1104,1107,1110,1113,1116,1119,1122,1125,1128,1131,1134,1137,1140,1143,1146,1149,1152,1155,1158,1161,1164,1167,1170,1173,1176,1179,1182,1185,1188,1191,1194,1197,1200,1203,1206,1209,1212,1215,1218,1221,1224,1227,1230,1233,1236,1239,1242,1245,1248,1251,1254,1257,1260,1263,1266,1269,1272,1275,1278,1281,1284,1287,1290,1293,1296,1299,1302,1305,1308,1311,1314,1317,1320,1323,1326,1329,1332,1335,1338,1341,1344,1347,1350,1353,1356,1359,1362,1365,1368,1371,1374,1377,1380,1383,1386,1389,1392,1395,1398,1401,1404,1407,1410,1413,1416,1419,1422,1425,1428,1431,1434,1437,1440,1443,1446,1449,1452,1455,1458,1461,1464,1467,1470,1473,1476,1479,1482,1485,1488,1491,1494,1497,1500,1503,1506,1509,1512,1515,1518,1521,1524,1527,1530,1533,1536,1539,1542,1545,1548,1551,1554,1557,1560,1563,1566,1569,1572,1575,1578,1581,1584,1587,1590,1593,1596,1599,1602,1605,1608,1611,1614,1617,1620,1623,1626,1629,1632,1635,1638,1641,1644],"tree_info":[0,1,2,0,1,2,0,1,2,0,1,2,0,1,2,0,1,2,0,1,2,0,1,2,0,1,2,0,1,2,0,1,2,0,1,2,0,1,2,0,1,2,0,1,2,0,1,2,0,1,2,0,1,2,0,1,2,0,1,2,0,1,2,0,1,2,0,1,2,0,1,2,0,1,2,0,1,2,0,1,2,0,1,2,0,1,2,0,1,2,0,1,2,0,1,2,0,1,2,0,1,2,0,1,2,0,1,2,0,1,2,0,1,2,0,1,2,0,1,2,0,1,2,0,1,2,0,1,2,0,1,2,0,1,2,0,1,2,0,1,2,0,1,2,0,1,2,0,1,2,0,1,2,0,1,2,0,1,2,0,1,2,0,1,2,0,1,2,0,1,2,0,1,2,0,1,2,0,1,2,0,1,2,0,1,2,0,1,2,0,1,2,0,1,2,0,1,2,0,1,2,0,1,2,0,1,2,0,1,2,0,1,2,0,1,2,0,1,2,0,1,2,0,1,2,0,1,2,0,1,2,0,1,2,0,1,2,0,1,2,0,1,2,0,1,2,0,1,2,0,1,2,0,1,2,0,1,2,0,1,2,0,1,2,0,1,2,0,1,2,0,1,2,0,1,2,0,1,2,0,1,2,0,1,2,0,1,2,0,1,2,0,1,2,0,1,2,0,1,2,0,1,2,0,1,2,0,1,2,0,1,2,0,1,2,0,1,2,0,1,2,0,1,2,0,1,2,0,1,2,0,1,2,0,1,2,0,1,2,0,1,2,0,1,2,0,1,2,0,1,2,0,1,2,0,1,2,0,1,2,0,1,2,0,1,2,0,1,2,0,1,2,0,1,2,0,1,2,0,1,2,0,1,2,0,1,2,0,1,2,0,1,2,0,1,2,0,1,2,0,1,2,0,1,2,0,1,2,0,1,2,0,1,2,0,1,2,0,1,2,0,1,2,0,1,2,0,1,2,0,1,2,0,1,2,0,1,2,0,1,2,0,1,2,0,1,2,0,1,2,0,1,2,0,1,2,0,1,2,0,1,2,0,1,2,0,1,2,0,1,2,0,1,2,0,1,2,0,1,2,0,1,2,0,1,2,0,1,2,0,1,2,0,1,2,0,1,2,0,1,2,0,1,2,0,1,2,0,1,2,0,1,2,0,1,2,0,1,2,0,1,2,0,1,2,0,1,2,0,1,2,0,1,2,0,1,2,0,1,2,0,1,2,0,1,2,0,1,2,0,1,2,0,1,2,0,1,2,0,1,2,0,1,2,0,1,2,0,1,2,0,1,2,0,1,2,0,1,2,0,1,2,0,1,2,0,1,2,0,1,2,0,1,2,0,1,2,0,1,2,0,1,2,0,1,2,0,1,2,0,1,2,0,1,2,0,1,2,0,1,2,0,1,2,0,1,2,0,1,2,0,1,2,0,1,2,0,1,2,0,1,2,0,1,2,0,1,2,0,1,2,0,1,2,0,1,2,0,1,2,0,1,2,0,1,2,0,1,2,0,1,2,0,1,2,0,1,2,0,1,2,0,1,2,0,1,2,0,1,2,0,1,2,0,1,2,0,1,2,0,1,2,0,1,2,0,1,2,0,1,2,0,1,2,0,1,2,0,1,2,0,1,2,0,1,2,0,1,2,0,1,2,0,1,2,0,1,2,0,1,2,0,1,2,0,1,2,0,1,2,0,1,2,0,1,2,0,1,2,0,1,2,0,1,2,0,1,2,0,1,2,0,1,2,0,1,2,0,1,2,0,1,2,0,1,2,0,1,2,0,1,2,0,1,2,0,1,2,0,1,2,0,1,2,0,1,2,0,1,2,0,1,2,0,1,2,0,1,2,0,1,2,0,1,2,0,1,2,0,1,2,0,1,2,0,1,2,0,1,2,0,1,2,0,1,2,0,1,2,0,1,2,0,1,2,0,1,2,0,1,2,0,1,2,0,1,2,0,1,2,0,1,2,0,1,2,0,1,2,0,1,2,0,1,2,0,1,2,0,1,2,0,1,2,0,1,2,0,1,2,0,1,2,0,1,2,0,1,2,0,1,2,0,1,2,0,1,2,0,1,2,0,1,2,0,1,2,0,1,2,0,1,2,0,1,2,0,1,2,0,1,2,0,1,2,0,1,2,0,1,2,0,1,2,0,1,2,0,1,2,0,1,2,0,1,2,0,1,2,0,1,2,0,1,2,0,1,2,0,1,2,0,1,2,0,1,2,0,1,2,0,1,2,0,1,2,0,1,2,0,1,2,0,1,2,0,1,2,0,1,2,0,1,2,0,1,2,0,1,2,0,1,2,0,1,2,0,1,2,0,1,2,0,1,2,0,1,2,0,1,2,0,1,2,0,1,2,0,1,2,0,1,2,0,1,2,0,1,2,0,1,2,0,1,2,0,1,2,0,1,2,0,1,2,0,1,2,0,1,2,0,1,2,0,1,2,0,1,2,0,1,2,0,1,2,0,1,2,0,1,2,0,1,2,0,1,2,0,1,2,0,1,2,0,1,2,0,1,2,0,1,2,0,1,2,0,1,2,0,1,2,0,1,2,0,1,2,0,1,2,0,1,2,0,1,2,0,1,2,0,1,2,0,1,2,0,1,2,0,1,2,0,1,2,0,1,2,0,1,2,0,1,2,0,1,2,0,1,2,0,1,2,0,1,2,0,1,2,0,1,2,0,1,2,0,1,2,0,1,2,0,1,2,0,1,2,0,1,2,0,1,2,0,1,2,0,1,2,0,1,2,0,1,2,0,1,2,0,1,2,0,1,2,0,1,2,0,1,2,0,1,2,0,1,2,0,1,2,0,1,2,0,1,2,0,1,2,0,1,2,0,1,2,0,1,2,0,1,2,0,1,2,0,1,2,0,1,2,0,1,2,0,1,2,0,1,2,0,1,2,0,1,2,0,1,2,0,1,2,0,1,2,0,1,2,0,1,2,0,1,2,0,1,2,0,1,2,0,1,2,0,1,2,0,1,2,0,1,2,0,1,2,0,1,2,0,1,2,0,1,2,0,1,2,0,1,2,0,1,2,0,1,2,0,1,2,0,1,2,0,1,2,0,1,2,0,1,2,0,1,2,0,1,2,0,1,2,0,1,2,0,1,2,0,1,2,0,1,2,0,1,2,0,1,2,0,1,2,0,1,2,0,1,2,0,1,2,0,1,2,0,1,2,0,1,2,0,1,2,0,1,2,0,1,2,0,1,2,0,1,2,0,1,2,0,1,2,0,1,2,0,1,2,0,1,2,0,1,2,0,1,2,0,1,2,0,1,2,0,1,2,0,1,2,0,1,2,0,1,2,0,1,2,0,1,2,0,1,2,0,1,2,0,1,2,0,1,2,0,1,2,0,1,2,0,1,2,0,1,2,0,1,2,0,1,2,0,1,2,0,1,2,0,1,2,0,1,2,0,1,2,0,1,2,0,1,2,0,1,2,0,1,2,0,1,2,0,1,2,0,1,2,0,1,2,0,1,2,0,1,2,0,1,2,0,1,2,0,1,2,0,1,2,0,1,2,0,1,2,0,1,2,0,1,2,0,1,2,0,1,2,0,1,2,0,1,2,0,1,2,0,1,2,0,1,2,0,1,2,0,1,2,0,1,2,0,1,2,0,1,2,0,1,2,0,1,2,0,1,2,0,1,2,0,1,2,0,1,2,0,1,2,0,1,2,0,1,2,0,1,2,0,1,2],"trees":[{"base_weights":[-4.571407E-3,4.430132E-1,-1.0227993E-1,6.338803E-1,2.7200812E-1,-7.41489E-3,-2.7544877E-1,5.378587E-1,7.6144344E-1,4.7855893E-1,2.0707239E-1,6.44862E-2,-1.6158412E-1,-2.1172489E-1,-3.9007875E-1,3.288815E-2,1.5134524E-2,4.2205483E-2,2.0249367E-2,3.0735066E-2,1.5815986E-2,5.4204282E-3,1.8067596E-2,4.0835193E-3,-1.14817E-2,2.623779E-2,-9.031222E-3,-2.9221773E-3,-1.2882936E-2,-1.2762611E-2,-2.1461755E-2],"categories":[],"categories_nodes":[],"categories_segments":[],"categories_sizes":[],"default_left":[0,0,0,0,0,0,0,0,0,0,0,0,0,0,0,0,0,0,0,0,0,0,0,0,0,0,0,0,0,0,0],"id":0,"left_children":[1,3,5,7,9,11,13,15,17,19,21,23,25,27,29,-1,-1,-1,-1,-1,-1,-1,-1,-1,-1,-1,-1,-1,-1,-1,-1],"loss_changes":[1.0048123E3,1.3420306E2,3.0980945E2,2.3411438E1,2.9049438E1,1.3508434E2,4.8674408E1,3.1183807E1,2.419809E1,1.1269997E1,2.5155792E1,4.2022083E1,5.074434E1,3.0204987E1,1.2474365E1,0E0,0E0,0E0,0E0,0E0,0E0,0E0,0E0,0E0,0E0,0E0,0E0,0E0,0E0,0E0,0E0],"parents":[2147483647,0,0,1,1,2,2,3,3,4,4,5,5,6,6,7,7,8,8,9,9,10,10,11,11,12,12,13,13,14,14],"right_children":[2,4,6,8,10,12,14,16,18,20,22,24,26,28,30,-1,-1,-1,-1,-1,-1,-1,-1,-1,-1,-1,-1,-1,-1,-1,-1],"split_conditions":[1.4115125E-2,6.95551E4,1E0,1E0,7.6114153E-3,9.432635E-3,8.396259E-3,1.3970132E0,7.15569E1,1.143E0,1E0,2.1877088E-2,1.498E0,1.116929E5,-2.8109627E-2,3.288815E-2,1.5134524E-2,4.2205483E-2,2.0249367E-2,3.0735066E-2,1.5815986E-2,5.4204282E-3,1.8067596E-2,4.0835193E-3,-1.14817E-2,2.623779E-2,-9.031222E-3,-2.9221773E-3,-1.2882936E-2,-1.2762611E-2,-2.1461755E-2],"split_indices":[5,1,42,41,5,14,14,50,28,0,41,15,0,1,13,0,0,0,0,0,0,0,0,0,0,0,0,0,0,0,0],"split_type":[0,0,0,0,0,0,0,0,0,0,0,0,0,0,0,0,0,0,0,0,0,0,0,0,0,0,0,0,0,0,0],"sum_hessian":[2.297412E4,4.1159917E3,1.8858127E4,1.9437596E3,2.1722322E3,1.2184358E4,6.6737695E3,1.1119612E3,8.3179846E2,5.1804364E2,1.6541885E3,8.309551E3,3.8748071E3,4.291135E3,2.3826348E3,7.352733E2,3.7668787E2,6.740992E2,1.576993E2,2.8015976E2,2.3788387E2,1.0099894E3,6.4419916E2,7.851541E3,4.5800967E2,1.0387567E2,3.7709316E3,9.8994763E2,3.3011873E3,5.379245E2,1.8447103E3],"tree_param":{"num_deleted":"0","num_feature":"51","num_nodes":"31","size_leaf_vector":"1"}},{"base_weights":[-3.5151877E-3,-2.1621002E-1,5.6268778E-2,-2.802413E-1,-5.3287383E-2,2.4864044E-2,2.4833663E-1,-3.3703384E-1,-1.8320094E-1,-1.8897262E-1,-2.8953116E-4,2.1619387E-1,6.9443868E-3,6.6863006E-1,2.2590668E-1,-2.0737581E-2,-1.3556719E-2,-4.4130627E-3,-1.4160226E-2,-1.5656755E-3,-1.4992063E-2,-1.0449902E-2,2.0105417E-3,1.2774489E-2,-2.42873E-3,-1.7914476E-3,4.310839E-3,4.841719E-2,2.50806E-2,9.714993E-3,2.8282275E-2],"categories":[],"categories_nodes":[],"categories_segments":[],"categories_sizes":[],"default_left":[0,0,0,0,0,0,0,0,0,0,0,0,0,0,0,0,0,0,0,0,0,0,0,0,0,0,0,0,0,0,0],"id":1,"left_children":[1,3,5,7,9,11,13,15,17,19,21,23,25,27,29,-1,-1,-1,-1,-1,-1,-1,-1,-1,-1,-1,-1,-1,-1,-1,-1],"loss_changes":[2.9239435E2,5.2617386E1,1.08262405E2,1.9897247E1,1.0244682E1,5.2894966E1,2.3627487E1,1.1581818E1,1.2689846E1,6.9851856E0,8.676687E0,1.37585945E1,4.78396E1,5.8856277E0,2.5619179E1,0E0,0E0,0E0,0E0,0E0,0E0,0E0,0E0,0E0,0E0,0E0,0E0,0E0,0E0,0E0,0E0],"parents":[2147483647,0,0,1,1,2,2,3,3,4,4,5,5,6,6,7,7,8,8,9,9,10,10,11,11,12,12,13,13,14,14],"right_children":[2,4,6,8,10,12,14,16,18,20,22,24,26,28,30,-1,-1,-1,-1,-1,-1,-1,-1,-1,-1,-1,-1,-1,-1,-1,-1],"split_conditions":[1.6357142E-2,1.279597E5,6.2660896E1,5.143423E1,4.1856987E1,3.3391432E6,7.327113E-3,5.64536E4,2.9549082E-3,-3.2258064E-3,8.285714E-3,1.5564285E-1,1E0,2.5493838E-2,1.9870909E-1,-2.0737581E-2,-1.3556719E-2,-4.4130627E-3,-1.4160226E-2,-1.5656755E-3,-1.4992063E-2,-1.0449902E-2,2.0105417E-3,1.2774489E-2,-2.42873E-3,-1.7914476E-3,4.310839E-3,4.841719E-2,2.50806E-2,9.714993E-3,2.8282275E-2],"split_indices":[45,1,49,49,49,24,7,1,7,10,45,45,42,15,7,0,0,0,0,0,0,0,0,0,0,0,0,0,0,0,0],"split_type":[0,0,0,0,0,0,0,0,0,0,0,0,0,0,0,0,0,0,0,0,0,0,0,0,0,0,0,0,0,0,0],"sum_hessian":[2.2992717E4,5.0442065E3,1.7948512E4,3.6205508E3,1.4236559E3,1.5427167E4,2.5213442E3,2.2823438E3,1.3382072E3,3.991599E2,1.024496E3,1.3202003E3,1.4106966E4,1.2628067E2,2.3950635E3,1.0448354E3,1.2375082E3,6.874501E2,6.507571E2,1.6533298E2,2.3382693E2,1.6582059E2,8.5867535E2,1.1496141E3,1.7058618E2,9.163257E3,4.9437095E3,4.3472134E1,8.280854E1,2.1926475E3,2.0241615E2],"tree_param":{"num_deleted":"0","num_feature":"51","num_nodes":"31","size_leaf_vector":"1"}},{"base_weights":[-1.1782433E-3,-2.6448366E-1,3.084669E-2,-3.3896613E-1,-1.253123E-1,-2.8760184E-2,1.3878289E-1,-3.8992444E-1,-1.6963021E-1,-4.542172E-1,-7.659143E-2,-6.50955E-2,4.91813E-2,1.1186547E-1,2.8121972E-1,-1.9697078E-2,3.78409E-2,-3.8244892E-3,-1.7243112E-2,-2.7757574E-2,-6.648674E-3,-2.7391363E-2,-1.8620755E-3,1.0568018E-2,-3.6850465E-3,-1.1901947E-3,5.0964244E-3,-1.5248369E-3,6.79806E-3,1.3592665E-2,6.3964E-2],"categories":[],"categories_nodes":[],"categories_segments":[],"categories_sizes":[],"default_left":[0,0,0,0,0,0,0,0,0,0,0,0,0,0,0,0,0,0,0,0,0,0,0,0,0,0,0,0,0,0,0],"id":2,"left_children":[1,3,5,7,9,11,13,15,17,19,21,23,25,27,29,-1,-1,-1,-1,-1,-1,-1,-1,-1,-1,-1,-1,-1,-1,-1,-1],"loss_changes":[1.935346E2,2.5756058E1,1.316557E2,1.3918015E1,1.389399E1,3.7339264E1,2.7881042E1,6.033081E0,6.1208897E0,3.5558586E0,1.4040331E1,2.1408031E1,1.6142109E1,2.1013947E1,1.046315E1,0E0,0E0,0E0,0E0,0E0,0E0,0E0,0E0,0E0,0E0,0E0,0E0,0E0,0E0,0E0,0E0],"parents":[2147483647,0,0,1,1,2,2,3,3,4,4,5,5,6,6,7,7,8,8,9,9,10,10,11,11,12,12,13,13,14,14],"right_children":[2,4,6,8,10,12,14,16,18,20,22,24,26,28,30,-1,-1,-1,-1,-1,-1,-1,-1,-1,-1,-1,-1,-1,-1,-1,-1],"split_conditions":[1.3970132E0,1E0,1E0,2.7740228E-3,5E-2,5.3169994E0,1.586369E-2,2.0322252E-2,8.5E-1,6.16969E4,1.0251086E0,-4.489729E4,1.577655E5,1.6245062E-2,1.0406172E7,-1.9697078E-2,3.78409E-2,-3.8244892E-3,-1.7243112E-2,-2.7757574E-2,-6.648674E-3,-2.7391363E-2,-1.8620755E-3,1.0568018E-2,-3.6850465E-3,-1.1901947E-3,5.0964244E-3,-1.5248369E-3,6.79806E-3,1.3592665E-2,6.3964E-2],"split_indices":[50,42,42,6,37,50,12,11,37,1,50,24,1,5,24,0,0,0,0,0,0,0,0,0,0,0,0,0,0,0,0],"split_type":[0,0,0,0,0,0,0,0,0,0,0,0,0,0,0,0,0,0,0,0,0,0,0,0,0,0,0,0,0,0,0],"sum_hessian":[2.294951E4,2.4878042E3,2.0461705E4,1.6195884E3,8.682158E2,1.3182508E4,7.2791973E3,1.243945E3,3.756435E2,1.1094247E2,7.572733E2,8.991126E3,4.191382E3,6.1237324E3,1.1554651E3,1.2402567E3,3.688208E0,2.462119E2,1.294316E2,8.38643E1,2.7078165E1,5.7365818E1,6.9990753E2,2.7071277E2,8.720413E3,1.7585967E3,2.4327852E3,8.8640643E2,5.2373257E3,1.1459828E3,9.482239E0],"tree_param":{"num_deleted":"0","num_feature":"51","num_nodes":"31","size_leaf_vector":"1"}},{"base_weights":[-8.47811E-4,4.3714723E-1,-8.76558E-2,5.51713E-1,1.873391E-1,1.4910918E-3,-2.5068352E-1,6.296621E-1,4.091689E-1,9.9590015E-1,1.6172406E-1,5.567167E-2,-2.034583E-1,1.5036554E-2,-2.8077522E-1,3.6433253E-2,2.6933005E-2,6.207921E-3,2.3328261E-2,3.4382779E-3,5.6518823E-2,3.970853E-3,1.7428989E-2,-1.5871635E-2,4.4927476E-3,-6.242602E-3,-1.6197642E-2,1.1263374E-2,-6.57078E-3,-1.2162487E-2,-2.1975398E-2],"categories":[],"categories_nodes":[],"categories_segments":[],"categories_sizes":[],"default_left":[0,0,0,0,0,0,0,0,0,0,0,0,0,0,0,0,0,0,0,0,0,0,0,0,0,0,0,0,0,0,0],"id":3,"left_children":[1,3,5,7,9,11,13,15,17,19,21,23,25,27,29,-1,-1,-1,-1,-1,-1,-1,-1,-1,-1,-1,-1,-1,-1,-1,-1],"loss_changes":[8.736347E2,1.0867084E2,2.787032E2,2.8688965E1,2.4620564E1,1.3768753E2,5.421057E1,1.4764465E1,1.505484E1,4.4789658E0,1.7827606E1,1.2510521E2,2.4515411E1,2.1291403E1,3.616617E1,0E0,0E0,0E0,0E0,0E0,0E0,0E0,0E0,0E0,0E0,0E0,0E0,0E0,0E0,0E0,0E0],"parents":[2147483647,0,0,1,1,2,2,3,3,4,4,5,5,6,6,7,7,8,8,9,9,10,10,11,11,12,12,13,13,14,14],"right_children":[2,4,6,8,10,12,14,16,18,20,22,24,26,28,30,-1,-1,-1,-1,-1,-1,-1,-1,-1,-1,-1,-1,-1,-1,-1,-1],"split_conditions":[1.302149E-2,9.84102E4,1E0,8.512176E-3,1.0088885E0,3.393522E5,4.209259E-3,4.45223E4,1.428339E-2,1.2112165E-2,7.4E-1,3.3391432E6,5.683852E1,9.7421E4,5.048214E5,3.6433253E-2,2.6933005E-2,6.207921E-3,2.3328261E-2,3.4382779E-3,5.6518823E-2,3.970853E-3,1.7428989E-2,-1.5871635E-2,4.4927476E-3,-6.242602E-3,-1.6197642E-2,1.1263374E-2,-6.57078E-3,-1.2162487E-2,-2.1975398E-2],"split_indices":[5,1,42,5,3,1,14,1,9,9,37,24,49,1,1,0,0,0,0,0,0,0,0,0,0,0,0,0,0,0,0],"split_type":[0,0,0,0,0,0,0,0,0,0,0,0,0,0,0,0,0,0,0,0,0,0,0,0,0,0,0,0,0,0,0],"sum_hessian":[2.29754E4,3.7997073E3,1.9175693E4,2.604182E3,1.1955254E3,1.2397485E4,6.7782075E3,1.6813381E3,9.228438E2,3.5547825E1,1.1599775E3,9.805915E3,2.5915708E3,6.8956976E2,6.0886377E3,8.019131E2,8.79425E2,1.5522302E2,7.676208E2,4.694358E0,3.0853466E1,8.062584E2,3.5371912E2,8.223061E2,8.983608E3,1.5696345E3,1.0219363E3,2.8291266E2,4.0665707E2,4.9265103E3,1.1621276E3],"tree_param":{"num_deleted":"0","num_feature":"51","num_nodes":"31","size_leaf_vector":"1"}},{"base_weights":[-5.497318E-4,-2.1652263E-1,6.021664E-2,-3.4779927E-1,-1.4466116E-1,-1.1114301E-2,1.4759742E-1,-4.3831488E-1,-2.866311E-1,-2.1284287E-1,-5.4043964E-2,-7.623149E-2,7.47906E-2,1.0321532E-1,2.6947778E-1,-1.8255845E-2,-2.834841E-2,-1.6150175E-2,-8.304977E-3,-1.1068209E-2,2.5844334E-2,1.897861E-2,-4.184257E-3,-1.0762293E-3,-8.168387E-3,7.2835647E-3,-2.3855087E-4,1.4515496E-2,3.1755709E-3,3.6290456E-2,1.2302968E-2],"categories":[],"categories_nodes":[],"categories_segments":[],"categories_sizes":[],"default_left":[0,0,0,0,0,0,0,0,0,0,0,0,0,0,0,0,0,0,0,0,0,0,0,0,0,0,0,0,0,0,0],"id":4,"left_children":[1,3,5,7,9,11,13,15,17,19,21,23,25,27,29,-1,-1,-1,-1,-1,-1,-1,-1,-1,-1,-1,-1,-1,-1,-1,-1],"loss_changes":[3.0214127E2,4.7639267E1,1.11989235E2,9.7717285E0,2.018341E1,5.5345478E1,4.3652985E1,6.5637665E0,4.635605E0,1.1710609E1,1.8086842E1,2.6824001E1,2.405883E1,4.3966274E1,2.2850418E1,0E0,0E0,0E0,0E0,0E0,0E0,0E0,0E0,0E0,0E0,0E0,0E0,0E0,0E0,0E0,0E0],"parents":[2147483647,0,0,1,1,2,2,3,3,4,4,5,5,6,6,7,7,8,8,9,9,10,10,11,11,12,12,13,13,14,14],"right_children":[2,4,6,8,10,12,14,16,18,20,22,24,26,28,30,-1,-1,-1,-1,-1,-1,-1,-1,-1,-1,-1,-1,-1,-1,-1,-1],"split_conditions":[1.6357142E-2,6.06978E4,5.0865448E1,4.5952583E1,5.1093697E1,8.105504E-3,6.3909725E1,4.8484848E1,3.0549897E-3,8.1208755E6,-1.1942185E-3,1E0,-5.099563E-3,2.2545848E-3,8.775981E-3,-1.8255845E-2,-2.834841E-2,-1.6150175E-2,-8.304977E-3,-1.1068209E-2,2.5844334E-2,1.897861E-2,-4.184257E-3,-1.0762293E-3,-8.168387E-3,7.2835647E-3,-2.3855087E-4,1.4515496E-2,3.1755709E-3,3.6290456E-2,1.2302968E-2],"split_indices":[45,1,49,49,49,14,49,25,11,24,6,41,15,6,7,0,0,0,0,0,0,0,0,0,0,0,0,0,0,0,0],"split_type":[0,0,0,0,0,0,0,0,0,0,0,0,0,0,0,0,0,0,0,0,0,0,0,0,0,0,0,0,0,0,0],"sum_hessian":[2.302024E4,5.0542183E3,1.7966021E4,1.7866053E3,3.267613E3,9.891905E3,8.074117E3,7.17982E2,1.0686234E3,1.8638649E3,1.4037482E3,5.6268115E3,4.2650938E3,5.920167E3,2.1539502E3,4.60064E2,2.57918E2,8.196122E2,2.4901122E2,1.8430397E3,2.0825161E1,8.906239E1,1.3146858E3,3.4573955E3,2.1694158E3,2.255161E3,2.0099329E3,1.0352941E3,4.884873E3,1.0367861E2,2.0502717E3],"tree_param":{"num_deleted":"0","num_feature":"51","num_nodes":"31","size_leaf_vector":"1"}},{"base_weights":[1.2020064E-3,-1.7991053E-1,5.1923916E-2,-2.8242245E-1,-9.2789434E-2,7.2309016E-3,1.1108195E-1,-3.6623383E-1,-1.8338889E-1,-3.2087418E-1,-7.046989E-2,9.686046E-2,-2.942644E-2,8.7295674E-2,2.0408592E-1,-1.9021219E-2,9.824926E-4,1.2139914E-3,-1.2946789E-2,-2.3994105E-2,-9.974043E-3,-2.8211467E-3,-1.9009536E-2,7.3422346E-4,1.2423486E-2,3.9628023E-4,-4.1604186E-3,9.153569E-3,2.8531025E-3,1.3013124E-2,2.3049393E-3],"categories":[],"categories_nodes":[],"categories_segments":[],"categories_sizes":[],"default_left":[0,0,0,0,0,0,0,0,0,0,0,0,0,0,0,0,0,0,0,0,0,0,0,0,0,0,0,0,0,0,0],"id":5,"left_children":[1,3,5,7,9,11,13,15,17,19,21,23,25,27,29,-1,-1,-1,-1,-1,-1,-1,-1,-1,-1,-1,-1,-1,-1,-1,-1],"loss_changes":[2.1115146E2,4.488611E1,4.7475117E1,1.9104965E1,1.3824125E1,3.361378E1,1.7077324E1,6.8527527E0,1.6648598E1,4.578594E0,1.0762989E1,3.6994133E1,1.4587385E1,1.7813698E1,1.3949608E1,0E0,0E0,0E0,0E0,0E0,0E0,0E0,0E0,0E0,0E0,0E0,0E0,0E0,0E0,0E0,0E0],"parents":[2147483647,0,0,1,1,2,2,3,3,4,4,5,5,6,6,7,7,8,8,9,9,10,10,11,11,12,12,13,13,14,14],"right_children":[2,4,6,8,10,12,14,16,18,20,22,24,26,28,30,-1,-1,-1,-1,-1,-1,-1,-1,-1,-1,-1,-1,-1,-1,-1,-1],"split_conditions":[1.678793E-2,7.50725E4,2.290026E5,1.355E0,1.12E0,4.3043472E1,1.23314064E2,4.916177E-3,4.316119E1,-4.8929662E-3,8.105504E-3,-1.6489988E-2,1E0,3.808235E1,7.0033806E1,-1.9021219E-2,9.824926E-4,1.2139914E-3,-1.2946789E-2,-2.3994105E-2,-9.974043E-3,-2.8211467E-3,-1.9009536E-2,7.3422346E-4,1.2423486E-2,3.9628023E-4,-4.1604186E-3,9.153569E-3,2.8531025E-3,1.3013124E-2,2.3049393E-3],"split_indices":[5,1,1,0,0,49,28,6,49,16,14,17,41,49,49,0,0,0,0,0,0,0,0,0,0,0,0,0,0,0,0],"split_type":[0,0,0,0,0,0,0,0,0,0,0,0,0,0,0,0,0,0,0,0,0,0,0,0,0,0,0,0,0,0,0],"sum_hessian":[2.298327E4,5.0278384E3,1.7955432E4,2.308857E3,2.7189814E3,1.0228827E4,7.7266045E3,1.2490754E3,1.0597816E3,2.4116147E2,2.47782E3,2.9686484E3,7.2601787E3,6.1544966E3,1.5721079E3,1.2047847E3,4.4290768E1,2.8287445E2,7.769071E2,1.031269E2,1.3803458E2,2.3714485E3,1.0637157E2,1.9258739E3,1.0427747E3,4.2850347E3,2.975144E3,1.4754454E3,4.6790513E3,1.1592561E3,4.1285184E2],"tree_param":{"num_deleted":"0","num_feature":"51","num_nodes":"31","size_leaf_vector":"1"}},{"base_weights":[3.3431975E-3,4.0543324E-1,-8.9864485E-2,5.986289E-1,2.524196E-1,4.98557E-3,-2.6537085E-1,6.5097725E-1,4.6339372E-1,4.4899875E-1,1.7215957E-1,7.742385E-2,-1.4969747E-1,-2.2620897E-1,-4.4619057E-1,3.5610635E-2,2.6030207E-2,3.6656436E-2,1.9378608E-2,1.5847621E-2,3.0509043E-2,1.4435639E-2,4.8104356E-4,-1.4469529E-2,4.7921953E-3,7.401792E-3,-9.085493E-3,1.4101784E-2,-1.18128965E-2,-1.5304749E-2,-2.6577348E-2],"categories":[],"categories_nodes":[],"categories_segments":[],"categories_sizes":[],"default_left":[0,0,0,0,0,0,0,0,0,0,0,0,0,0,0,0,0,0,0,0,0,0,0,0,0,0,0,0,0,0,0],"id":6,"left_children":[1,3,5,7,9,11,13,15,17,19,21,23,25,27,29,-1,-1,-1,-1,-1,-1,-1,-1,-1,-1,-1,-1,-1,-1,-1,-1],"loss_changes":[8.595563E2,1.2743744E2,3.0994827E2,1.3197388E1,3.7949646E1,1.3545541E2,4.615509E1,1.058429E1,1.066983E1,1.466539E1,3.2450386E1,5.565723E1,3.6775642E1,2.7499878E1,1.373082E1,0E0,0E0,0E0,0E0,0E0,0E0,0E0,0E0,0E0,0E0,0E0,0E0,0E0,0E0,0E0,0E0],"parents":[2147483647,0,0,1,1,2,2,3,3,4,4,5,5,6,6,7,7,8,8,9,9,10,10,11,11,12,12,13,13,14,14],"right_children":[2,4,6,8,10,12,14,16,18,20,22,24,26,28,30,-1,-1,-1,-1,-1,-1,-1,-1,-1,-1,-1,-1,-1,-1,-1,-1],"split_conditions":[1.4392321E-2,6.56225E4,1E0,1E0,8.052734E-3,9.432635E-3,5.048214E5,8.512176E-3,9.664964E-3,5.5E-1,1.382646E5,3.3391432E6,3.0206528E-2,3.1425105E-3,-1.02471365E-2,3.5610635E-2,2.6030207E-2,3.6656436E-2,1.9378608E-2,1.5847621E-2,3.0509043E-2,1.4435639E-2,4.8104356E-4,-1.4469529E-2,4.7921953E-3,7.401792E-3,-9.085493E-3,1.4101784E-2,-1.18128965E-2,-1.5304749E-2,-2.6577348E-2],"split_indices":[5,1,42,42,5,14,1,5,9,37,1,24,5,14,17,0,0,0,0,0,0,0,0,0,0,0,0,0,0,0,0],"split_type":[0,0,0,0,0,0,0,0,0,0,0,0,0,0,0,0,0,0,0,0,0,0,0,0,0,0,0,0,0,0,0],"sum_hessian":[2.2933057E4,4.315031E3,1.8618025E4,1.905821E3,2.4092095E3,1.2086831E4,6.5311943E3,1.3712198E3,5.346012E2,6.971357E2,1.712074E3,8.232187E3,3.854645E3,5.3703394E3,1.1608552E3,9.2996027E2,4.4125958E2,1.1539934E2,4.1920187E2,3.848328E2,3.1230286E2,9.966327E2,7.154412E2,3.9291995E2,7.8392666E3,3.7386493E2,3.48078E3,1.0359828E2,5.2667407E3,4.412374E2,7.196178E2],"tree_param":{"num_deleted":"0","num_feature":"51","num_nodes":"31","size_leaf_vector":"1"}},{"base_weights":[5.374124E-4,-1.8833467E-1,4.105268E-2,-2.8158417E-1,4.0010858E-4,-2.6726054E-6,1.8992954E-1,-3.5055873E-1,-1.9873942E-1,-2.4444738E-1,6.352572E-2,1.604651E-1,-2.0415537E-2,8.290103E-1,1.7890161E-1,-1.2082218E-2,-2.0458547E-2,-5.7465117E-3,-1.6466519E-2,1.8524103E-2,-1.4518662E-2,1.3942078E-3,1.6924825E-2,1.15151545E-2,4.8938594E-3,1.1130462E-3,-4.233886E-3,5.556978E-2,2.6743028E-2,7.3181354E-3,1.7404921E-2],"categories":[],"categories_nodes":[],"categories_segments":[],"categories_sizes":[],"default_left":[0,0,0,0,0,0,0,0,0,0,0,0,0,0,0,0,0,0,0,0,0,0,0,0,0,0,0,0,0,0,0],"id":7,"left_children":[1,3,5,7,9,11,13,15,17,19,21,23,25,27,29,-1,-1,-1,-1,-1,-1,-1,-1,-1,-1,-1,-1,-1,-1,-1,-1],"loss_changes":[1.7612985E2,7.154755E1,1.1583546E2,1.5478409E1,2.0809673E1,4.866574E1,2.87229E1,9.371155E0,1.3517174E1,7.901205E0,1.0480867E1,7.3061333E0,3.6148792E1,5.154808E0,2.2126846E1,0E0,0E0,0E0,0E0,0E0,0E0,0E0,0E0,0E0,0E0,0E0,0E0,0E0,0E0,0E0,0E0],"parents":[2147483647,0,0,1,1,2,2,3,3,4,4,5,5,6,6,7,7,8,8,9,9,10,10,11,11,12,12,13,13,14,14],"right_children":[2,4,6,8,10,12,14,16,18,20,22,24,26,28,30,-1,-1,-1,-1,-1,-1,-1,-1,-1,-1,-1,-1,-1,-1,-1,-1],"split_conditions":[1.7140623E0,1.279597E5,5.8640827E1,4.9712723E1,2.1704307E-2,-9.211284E-3,2.0801537E-3,-1.9482273E0,2.9549082E-3,-1.0777974E-2,6.336581E5,-1.3689107E-2,1E0,1.1059717E1,8.192938E0,-1.2082218E-2,-2.0458547E-2,-5.7465117E-3,-1.6466519E-2,1.8524103E-2,-1.4518662E-2,1.3942078E-3,1.6924825E-2,1.15151545E-2,4.8938594E-3,1.1130462E-3,-4.233886E-3,5.556978E-2,2.6743028E-2,7.3181354E-3,1.7404921E-2],"split_indices":[3,1,49,49,9,10,6,48,7,11,1,6,41,48,3,0,0,0,0,0,0,0,0,0,0,0,0,0,0,0,0],"split_type":[0,0,0,0,0,0,0,0,0,0,0,0,0,0,0,0,0,0,0,0,0,0,0,0,0,0,0,0,0,0,0],"sum_hessian":[2.301487E4,4.0643293E3,1.895054E4,2.7199656E3,1.3443639E3,1.4855014E4,4.0955254E3,1.4824672E3,1.2374984E3,2.749671E2,1.0693969E3,1.6756538E3,1.317936E4,6.8215004E1,4.0273105E3,5.204603E2,9.620068E2,7.549045E2,4.825939E2,1.86176E1,2.5634952E2,9.4766266E2,1.2173413E2,7.9069104E2,8.8496277E2,7.9202095E3,5.259151E3,3.338597E1,3.4829033E1,3.3792905E3,6.4801984E2],"tree_param":{"num_deleted":"0","num_feature":"51","num_nodes":"31","size_leaf_vector":"1"}},{"base_weights":[3.9701746E-3,-1.556814E-1,5.2560076E-2,-2.8488362E-1,-9.125586E-2,9.8214775E-2,-1.907441E-2,-3.6925018E-1,-2.1854082E-1,-3.6439247E-2,-1.757329E-1,2.1704103E-1,6.594647E-2,-1.0290762E-1,2.3921805E-2,-1.4379859E-2,-2.2990879E-2,1.4777483E-2,-1.2446443E-2,-2.9153212E-3,7.5327232E-3,7.7079507E-3,-9.931057E-3,9.79238E-3,3.767569E-2,8.149248E-4,6.478552E-3,-2.9729027E-2,-4.699755E-3,-1.3306579E-3,5.1394566E-3],"categories":[],"categories_nodes":[],"categories_segments":[],"categories_sizes":[],"default_left":[0,0,0,0,0,0,0,0,0,0,0,0,0,0,0,0,0,0,0,0,0,0,0,0,0,0,0,0,0,0,0],"id":8,"left_children":[1,3,5,7,9,11,13,15,17,19,21,23,25,27,29,-1,-1,-1,-1,-1,-1,-1,-1,-1,-1,-1,-1,-1,-1,-1,-1],"loss_changes":[1.7795898E2,4.4530197E1,5.7521065E1,9.885269E0,1.6540323E1,4.1173088E1,2.468172E1,5.653351E0,1.5683243E1,8.879795E0,1.0646225E1,2.5930138E1,2.6687336E1,1.0116161E1,1.8043243E1,0E0,0E0,0E0,0E0,0E0,0E0,0E0,0E0,0E0,0E0,0E0,0E0,0E0,0E0,0E0,0E0],"parents":[2147483647,0,0,1,1,2,2,3,3,4,4,5,5,6,6,7,7,8,8,9,9,10,10,11,11,12,12,13,13,14,14],"right_children":[2,4,6,8,10,12,14,16,18,20,22,24,26,28,30,-1,-1,-1,-1,-1,-1,-1,-1,-1,-1,-1,-1,-1,-1,-1,-1],"split_conditions":[1.985E0,7.826907E-3,1E0,1.132E0,1E0,4.0327705E1,1.301334E5,3.0468574E-3,3.58719E1,4.860327E5,9.523809E0,4.5724075E1,2.181234E5,2.4273822E-3,5.3638334E0,-1.4379859E-2,-2.2990879E-2,1.4777483E-2,-1.2446443E-2,-2.9153212E-3,7.5327232E-3,7.7079507E-3,-9.931057E-3,9.79238E-3,3.767569E-2,8.149248E-4,6.478552E-3,-2.9729027E-2,-4.699755E-3,-1.3306579E-3,5.1394566E-3],"split_indices":[0,5,41,0,41,49,1,14,49,1,25,2,1,14,3,0,0,0,0,0,0,0,0,0,0,0,0,0,0,0,0],"split_type":[0,0,0,0,0,0,0,0,0,0,0,0,0,0,0,0,0,0,0,0,0,0,0,0,0,0,0,0,0,0,0],"sum_hessian":[2.2938328E4,5.3517866E3,1.7586541E4,1.7795553E3,3.5722312E3,1.07407705E4,6.845771E3,7.813568E2,9.981984E2,2.1673093E3,1.4049219E3,2.2926155E3,8.448154E3,2.3203E3,4.5254707E3,4.1309634E2,3.6826047E2,5.5223694E1,9.4297473E2,1.9411228E3,2.2618655E2,9.077862E1,1.3141433E3,2.2068005E3,8.581487E1,4.745988E3,3.702167E3,4.0141132E1,2.280159E3,2.7585603E3,1.7669104E3],"tree_param":{"num_deleted":"0","num_feature":"51","num_nodes":"31","size_leaf_vector":"1"}},{"base_weights":[1.2060963E-3,3.737634E-1,-1.0027345E-1,5.5706525E-1,2.5835094E-1,-1.5816182E-2,-2.564813E-1,6.386356E-1,4.226224E-1,1.5811999E-1,4.0314785E-1,3.8509812E-2,-1.7869727E-1,-1.966628E-1,-3.565287E-1,3.4584865E-2,1.7176574E-2,3.470854E-2,1.7553918E-2,1.3906948E-2,2.1544097E-3,2.1504601E-2,-4.8288065E-3,-1.0472795E-2,3.4854587E-3,1.0595786E-2,-1.0472823E-2,-1.1162581E-2,1.6693717E-4,-1.5899701E-2,-2.6367722E-2],"categories":[],"categories_nodes":[],"categories_segments":[],"categories_sizes":[],"default_left":[0,0,0,0,0,0,0,0,0,0,0,0,0,0,0,0,0,0,0,0,0,0,0,0,0,0,0,0,0,0,0],"id":9,"left_children":[1,3,5,7,9,11,13,15,17,19,21,23,25,27,29,-1,-1,-1,-1,-1,-1,-1,-1,-1,-1,-1,-1,-1,-1,-1,-1],"loss_changes":[8.703628E2,1.0411536E2,2.3869447E2,2.0602112E1,4.385344E1,1.03931244E2,3.7928772E1,1.8280212E1,1.3776352E1,2.4698692E1,1.6699768E1,6.8156395E1,3.5339966E1,2.1143219E1,1.5463379E1,0E0,0E0,0E0,0E0,0E0,0E0,0E0,0E0,0E0,0E0,0E0,0E0,0E0,0E0,0E0,0E0],"parents":[2147483647,0,0,1,1,2,2,3,3,4,4,5,5,6,6,7,7,8,8,9,9,10,10,11,11,12,12,13,13,14,14],"right_children":[2,4,6,8,10,12,14,16,18,20,22,24,26,28,30,-1,-1,-1,-1,-1,-1,-1,-1,-1,-1,-1,-1,-1,-1,-1,-1],"split_conditions":[1.5972061E-2,7.826907E-3,1E0,1E0,1E0,1.0397853E-2,8.352774E-3,5.6497175E-3,9.664964E-3,1E0,1.13E-2,7.148768E6,2.9574128E-2,1E0,6.082427E1,3.4584865E-2,1.7176574E-2,3.470854E-2,1.7553918E-2,1.3906948E-2,2.1544097E-3,2.1504601E-2,-4.8288065E-3,-1.0472795E-2,3.4854587E-3,1.0595786E-2,-1.0472823E-2,-1.1162581E-2,1.6693717E-4,-1.5899701E-2,-2.6367722E-2],"split_indices":[5,5,42,42,41,14,14,12,9,42,46,24,5,41,2,0,0,0,0,0,0,0,0,0,0,0,0,0,0,0,0],"split_type":[0,0,0,0,0,0,0,0,0,0,0,0,0,0,0,0,0,0,0,0,0,0,0,0,0,0,0,0,0,0,0],"sum_hessian":[2.3019248E4,4.9272764E3,1.8091973E4,1.9022443E3,3.025032E3,1.1743621E4,6.348351E3,1.1815897E3,7.206545E2,1.7888506E3,1.2361814E3,8.806979E3,2.936642E3,3.9747861E3,2.373565E3,1.000372E3,1.8121773E2,1.4846124E2,5.7219324E2,8.747539E2,9.140967E2,1.1730709E3,6.311047E1,9.8362537E2,7.823353E3,2.1393805E2,2.722704E3,3.5082695E3,4.6651648E2,1.9390234E3,4.345415E2],"tree_param":{"num_deleted":"0","num_feature":"51","num_nodes":"31","size_leaf_vector":"1"}},{"base_weights":[-2.0759187E-3,-2.2240889E-1,4.733865E-2,-2.850598E-1,-9.743854E-2,1.945386E-2,2.611088E-1,-3.4199408E-1,-1.8497129E-1,-7.967506E-2,-5.2867645E-1,1.8686526E-1,4.3339487E-3,6.6446424E-1,2.3986427E-1,-9.840658E-3,-1.8723516E-2,1.6981244E-2,-1.0053917E-2,-1.07772825E-2,-8.690183E-4,-3.2684468E-2,-1.55759975E-2,2.1733705E-2,7.7330815E-3,-2.181426E-3,3.3712431E-3,3.533748E-2,-2.153041E-2,1.0570681E-2,2.555663E-2],"categories":[],"categories_nodes":[],"categories_segments":[],"categories_sizes":[],"default_left":[0,0,0,0,0,0,0,0,0,0,0,0,0,0,0,0,0,0,0,0,0,0,0,0,0,0,0,0,0,0,0],"id":10,"left_children":[1,3,5,7,9,11,13,15,17,19,21,23,25,27,29,-1,-1,-1,-1,-1,-1,-1,-1,-1,-1,-1,-1,-1,-1,-1,-1],"loss_changes":[2.5018063E2,3.2929474E1,1.1187593E2,1.591095E1,1.073681E1,4.202885E1,1.8398666E1,8.34552E0,8.675121E0,1.1444924E1,1.302804E0,1.0908863E1,4.608871E1,5.295784E0,1.5782066E1,0E0,0E0,0E0,0E0,0E0,0E0,0E0,0E0,0E0,0E0,0E0,0E0,0E0,0E0,0E0,0E0],"parents":[2147483647,0,0,1,1,2,2,3,3,4,4,5,5,6,6,7,7,8,8,9,9,10,10,11,11,12,12,13,13,14,14],"right_children":[2,4,6,8,10,12,14,16,18,20,22,24,26,28,30,-1,-1,-1,-1,-1,-1,-1,-1,-1,-1,-1,-1,-1,-1,-1,-1],"split_conditions":[1.4392321E-2,1.033422E5,6.4172104E1,5.143423E1,6.0972434E-2,3.3391432E6,8.20799E-3,-6.5820403E-3,-1.1942185E-3,3.608587E-3,6.7637786E-3,-1.1711241E5,2.137072E5,3.4117436E-1,1.9870909E-1,-9.840658E-3,-1.8723516E-2,1.6981244E-2,-1.0053917E-2,-1.07772825E-2,-8.690183E-4,-3.2684468E-2,-1.55759975E-2,2.1733705E-2,7.7330815E-3,-2.181426E-3,3.3712431E-3,3.533748E-2,-2.153041E-2,1.0570681E-2,2.555663E-2],"split_indices":[5,1,49,49,9,24,7,12,6,14,7,24,1,5,7,0,0,0,0,0,0,0,0,0,0,0,0,0,0,0,0],"split_type":[0,0,0,0,0,0,0,0,0,0,0,0,0,0,0,0,0,0,0,0,0,0,0,0,0,0,0,0,0,0,0],"sum_hessian":[2.29764E4,4.2083643E3,1.8768037E4,2.8022446E3,1.4061198E3,1.660334E4,2.1646963E3,1.7846494E3,1.0175952E3,1.3516284E3,5.4491264E1,1.3743905E3,1.522895E4,1.0679393E2,2.0579023E3,3.275298E2,1.4571196E3,2.9714918E1,9.8788025E2,4.2412088E2,9.2750757E2,3.330689E1,2.1184374E1,1.5662837E2,1.2177621E3,8.651946E3,6.5770044E3,1.0316491E2,3.6290221E0,1.8641675E3,1.9373486E2],"tree_param":{"num_deleted":"0","num_feature":"51","num_nodes":"31","size_leaf_vector":"1"}},{"base_weights":[-1.2103317E-3,-2.3235574E-1,3.2310575E-2,-2.9949138E-1,-1.124299E-1,-2.4569202E-2,1.343404E-1,-4.5003244E-1,-2.3674501E-1,6.024323E-1,-1.2827015E-1,-9.781675E-2,6.337185E-3,-1.882466E-2,1.6323297E-1,-2.3393696E-2,1.104214E-2,-2.3602115E-2,-1.0050364E-2,4.0740985E-2,-1.4626366E-2,-1.8456945E-2,-4.5597376E-3,1.0448421E-2,-5.5612577E-3,4.673272E-3,-8.801642E-4,-2.540702E-3,2.3762934E-2,6.6102482E-3,1.3838606E-2],"categories":[],"categories_nodes":[],"categories_segments":[],"categories_sizes":[],"default_left":[0,0,0,0,0,0,0,0,0,0,0,0,0,0,0,0,0,0,0,0,0,0,0,0,0,0,0,0,0,0,0],"id":11,"left_children":[1,3,5,7,9,11,13,15,17,19,21,23,25,27,29,-1,-1,-1,-1,-1,-1,-1,-1,-1,-1,-1,-1,-1,-1,-1,-1],"loss_changes":[1.7747977E2,2.332405E1,1.1610008E2,1.745636E1,1.1885509E1,2.9079792E1,3.16913E1,6.6371307E0,1.0958229E1,4.568614E0,9.084339E0,1.5702713E1,1.884659E1,1.7999525E1,2.118657E1,0E0,0E0,0E0,0E0,0E0,0E0,0E0,0E0,0E0,0E0,0E0,0E0,0E0,0E0,0E0,0E0],"parents":[2147483647,0,0,1,1,2,2,3,3,4,4,5,5,6,6,7,7,8,8,9,9,10,10,11,11,12,12,13,13,14,14],"right_children":[2,4,6,8,10,12,14,16,18,20,22,24,26,28,30,-1,-1,-1,-1,-1,-1,-1,-1,-1,-1,-1,-1,-1,-1,-1,-1],"split_conditions":[1.06934E-2,1E0,1E0,1.132E0,-8.8083595E-3,2.863886E-2,4.5272135E-3,9.082951E-3,2.90431E4,2.223977E5,9.664964E-3,-4.489729E4,4.0046776E1,7.84E0,1.3929815E-2,-2.3393696E-2,1.104214E-2,-2.3602115E-2,-1.0050364E-2,4.0740985E-2,-1.4626366E-2,-1.8456945E-2,-4.5597376E-3,1.0448421E-2,-5.5612577E-3,4.673272E-3,-8.801642E-4,-2.540702E-3,2.3762934E-2,6.6102482E-3,1.3838606E-2],"split_indices":[5,42,42,0,7,5,14,11,1,1,9,24,49,0,12,0,0,0,0,0,0,0,0,0,0,0,0,0,0,0,0],"split_type":[0,0,0,0,0,0,0,0,0,0,0,0,0,0,0,0,0,0,0,0,0,0,0,0,0,0,0,0,0,0,0],"sum_hessian":[2.2903955E4,2.9001143E3,2.0003842E4,1.8583146E3,1.0417996E3,1.2844194E4,7.159646E3,5.448759E2,1.3134387E3,2.178146E1,1.0200181E3,3.810713E3,9.033481E3,1.1362919E3,6.0233545E3,5.310555E2,1.3820479E1,1.7157574E2,1.1418629E3,1.7676182E1,4.105278E0,1.3486705E2,8.8515106E2,1.589663E2,3.6517466E3,1.9465092E3,7.0869727E3,1.068039E3,6.825293E1,4.73228E3,1.2910746E3],"tree_param":{"num_deleted":"0","num_feature":"51","num_nodes":"31","size_leaf_vector":"1"}},{"base_weights":[2.0237742E-3,3.39993E-1,-9.036939E-2,4.5606744E-1,8.56698E-2,-4.5978613E-3,-2.5157478E-1,3.62059E-1,5.8233374E-1,3.939393E-1,2.8591871E-2,6.698899E-2,-1.3581198E-1,-2.2117834E-1,-4.5789742E-1,2.7292097E-2,1.3681916E-2,2.758359E-2,4.4599336E-2,4.0485315E-2,1.4372081E-2,4.104744E-3,-6.585707E-3,-1.683643E-2,4.287298E-3,9.149638E-3,-8.296771E-3,-1.2401529E-2,-1.1655557E-3,1.2046769E-2,-2.3257867E-2],"categories":[],"categories_nodes":[],"categories_segments":[],"categories_sizes":[],"default_left":[0,0,0,0,0,0,0,0,0,0,0,0,0,0,0,0,0,0,0,0,0,0,0,0,0,0,0,0,0,0,0],"id":12,"left_children":[1,3,5,7,9,11,13,15,17,19,21,23,25,27,29,-1,-1,-1,-1,-1,-1,-1,-1,-1,-1,-1,-1,-1,-1,-1,-1],"loss_changes":[7.1773584E2,1.4563281E2,2.4958105E2,4.000482E1,2.7219885E1,1.1068816E2,3.9212616E1,3.145256E1,1.3220642E1,1.04696045E1,1.1220106E1,5.776407E1,3.9976845E1,2.9034332E1,4.1911926E0,0E0,0E0,0E0,0E0,0E0,0E0,0E0,0E0,0E0,0E0,0E0,0E0,0E0,0E0,0E0,0E0],"parents":[2147483647,0,0,1,1,2,2,3,3,4,4,5,5,6,6,7,7,8,8,9,9,10,10,11,11,12,12,13,13,14,14],"right_children":[2,4,6,8,10,12,14,16,18,20,22,24,26,28,30,-1,-1,-1,-1,-1,-1,-1,-1,-1,-1,-1,-1,-1,-1,-1,-1],"split_conditions":[1.5972061E-2,1.147758E5,1E0,1E0,7.826907E-3,9.095871E-3,2E-2,4.45223E4,5.866736E-3,1.0274895E0,6.0759494E-3,3.3391432E6,2.863886E-2,1E0,1.7142856E-2,2.7292097E-2,1.3681916E-2,2.758359E-2,4.4599336E-2,4.0485315E-2,1.4372081E-2,4.104744E-3,-6.585707E-3,-1.683643E-2,4.287298E-3,9.149638E-3,-8.296771E-3,-1.2401529E-2,-1.1655557E-3,1.2046769E-2,-2.3257867E-2],"split_indices":[5,1,42,41,5,14,12,1,14,4,11,24,5,41,45,0,0,0,0,0,0,0,0,0,0,0,0,0,0,0,0],"split_type":[0,0,0,0,0,0,0,0,0,0,0,0,0,0,0,0,0,0,0,0,0,0,0,0,0,0,0,0,0,0,0],"sum_hessian":[2.2983184E4,4.933613E3,1.804957E4,3.3869827E3,1.5466304E3,1.1781886E4,6.267684E3,1.9437091E3,1.4432734E3,2.4070676E2,1.3059236E3,7.6233066E3,4.158579E3,5.464674E3,8.030103E2,6.297003E2,1.3140088E3,1.3157675E3,1.2750606E2,4.77373E1,1.9296945E2,9.794985E2,3.2642514E2,3.377059E2,7.285601E3,3.5857745E2,3.8000015E3,4.8114644E3,6.532093E2,7.9254417E0,7.9508484E2],"tree_param":{"num_deleted":"0","num_feature":"51","num_nodes":"31","size_leaf_vector":"1"}},{"base_weights":[-1.0409803E-3,-2.2760195E-1,4.190982E-2,-2.7422282E-1,-7.748364E-2,2.5603543E-3,1.8117487E-1,-1.924302E-1,-3.1590858E-1,-2.0303783E-1,9.080483E-3,1.4743535E-1,-1.7983358E-2,6.4186984E-1,1.6600883E-1,9.12582E-3,-1.0594696E-2,-2.5182297E-2,-1.42894415E-2,-1.0945185E-2,5.7629284E-2,1.1658132E-2,-4.8269182E-3,1.5667146E-2,6.3638585E-3,-4.4455146E-3,1.1883945E-3,4.586248E-2,1.3557757E-2,4.965739E-3,1.2509629E-2],"categories":[],"categories_nodes":[],"categories_segments":[],"categories_sizes":[],"default_left":[0,0,0,0,0,0,0,0,0,0,0,0,0,0,0,0,0,0,0,0,0,0,0,0,0,0,0,0,0,0,0],"id":13,"left_children":[1,3,5,7,9,11,13,15,17,19,21,23,25,27,29,-1,-1,-1,-1,-1,-1,-1,-1,-1,-1,-1,-1,-1,-1,-1,-1],"loss_changes":[2.2266534E2,2.5500122E1,1.0541031E2,9.424988E0,9.408787E0,4.4643375E1,2.9501526E1,6.91164E0,1.0267914E1,7.8502283E0,1.2170146E1,6.190235E0,3.8904633E1,1.3503265E1,2.3016945E1,0E0,0E0,0E0,0E0,0E0,0E0,0E0,0E0,0E0,0E0,0E0,0E0,0E0,0E0,0E0,0E0],"parents":[2147483647,0,0,1,1,2,2,3,3,4,4,5,5,6,6,7,7,8,8,9,9,10,10,11,11,12,12,13,13,14,14],"right_children":[2,4,6,8,10,12,14,16,18,20,22,24,26,28,30,-1,-1,-1,-1,-1,-1,-1,-1,-1,-1,-1,-1,-1,-1,-1,-1],"split_conditions":[1.302149E-2,1.188695E5,5.8814713E1,7.13651E6,2.1704307E-2,-1.5748031E-2,-2.9890062E-4,-1.8146221E-3,7.1579675E6,7.8270815E6,7.096216E6,-2.2516888E-2,4.374984E1,6.448537E1,6.570785E1,9.12582E-3,-1.0594696E-2,-2.5182297E-2,-1.42894415E-2,-1.0945185E-2,5.7629284E-2,1.1658132E-2,-4.8269182E-3,1.5667146E-2,6.3638585E-3,-4.4455146E-3,1.1883945E-3,4.586248E-2,1.3557757E-2,4.965739E-3,1.2509629E-2],"split_indices":[5,1,49,24,9,11,7,8,24,24,24,10,49,2,49,0,0,0,0,0,0,0,0,0,0,0,0,0,0,0,0],"split_type":[0,0,0,0,0,0,0,0,0,0,0,0,0,0,0,0,0,0,0,0,0,0,0,0,0,0,0,0,0,0,0],"sum_hessian":[2.288014E4,3.6456133E3,1.9234527E4,2.7810889E3,8.645245E2,1.499788E4,4.2366465E3,9.4077924E2,1.8403097E3,3.5225778E2,5.1226666E2,1.8618527E3,1.3136027E4,1.3370802E2,4.1029385E3,4.6013016E1,8.9476624E2,2.5225772E2,1.588052E3,3.4901157E2,3.2462227E0,1.6371643E2,3.4855023E2,2.0013567E2,1.661717E3,4.8669443E3,8.269083E3,7.5872795E1,5.7835224E1,2.2904907E3,1.8124475E3],"tree_param":{"num_deleted":"0","num_feature":"51","num_nodes":"31","size_leaf_vector":"1"}},{"base_weights":[1.8545902E-4,-1.3091196E-1,4.867988E-2,-1.957479E-1,-2.4898333E-2,-1.8820115E-3,1.418716E-1,-3.0765244E-1,-1.2893414E-1,-9.641048E-2,1.5466154E-1,-2.9731939E-2,8.4102325E-2,-1.948967E-2,1.5795933E-1,-1.7571576E-2,-5.045258E-3,-2.7003658E-3,-1.0141867E-2,3.7788418E-3,-7.083391E-3,9.482111E-3,-8.958565E-3,8.037486E-3,-2.041385E-3,1.0227977E-3,7.828279E-3,-4.3081087E-3,1.2058022E-2,6.7102187E-3,1.3649041E-2],"categories":[],"categories_nodes":[],"categories_segments":[],"categories_sizes":[],"default_left":[0,0,0,0,0,0,0,0,0,0,0,0,0,0,0,0,0,0,0,0,0,0,0,0,0,0,0,0,0,0,0],"id":14,"left_children":[1,3,5,7,9,11,13,15,17,19,21,23,25,27,29,-1,-1,-1,-1,-1,-1,-1,-1,-1,-1,-1,-1,-1,-1,-1,-1],"loss_changes":[1.4630505E2,4.2707718E1,7.915586E1,2.878894E1,3.0310585E1,2.608338E1,1.5341469E1,1.3005081E1,1.3367283E1,1.31492195E1,7.885948E0,1.7395557E1,1.2287138E1,9.345441E0,1.4644318E1,0E0,0E0,0E0,0E0,0E0,0E0,0E0,0E0,0E0,0E0,0E0,0E0,0E0,0E0,0E0,0E0],"parents":[2147483647,0,0,1,1,2,2,3,3,4,4,5,5,6,6,7,7,8,8,9,9,10,10,11,11,12,12,13,13,14,14],"right_children":[2,4,6,8,10,12,14,16,18,20,22,24,26,28,30,-1,-1,-1,-1,-1,-1,-1,-1,-1,-1,-1,-1,-1,-1,-1,-1],"split_conditions":[2E-2,1E0,1E0,1.3674322E0,4.901637E-3,1.0128571E-1,4.5272135E-3,1.0178117E-2,4.9332947E1,4.0464798E1,8.105504E-3,3.1065393E1,2.459618E5,7.2580724E0,8.074074E1,-1.7571576E-2,-5.045258E-3,-2.7003658E-3,-1.0141867E-2,3.7788418E-3,-7.083391E-3,9.482111E-3,-8.958565E-3,8.037486E-3,-2.041385E-3,1.0227977E-3,7.828279E-3,-4.3081087E-3,1.2058022E-2,6.7102187E-3,1.3649041E-2],"split_indices":[45,42,42,3,14,45,14,13,49,49,14,49,1,3,25,0,0,0,0,0,0,0,0,0,0,0,0,0,0,0,0],"split_type":[0,0,0,0,0,0,0,0,0,0,0,0,0,0,0,0,0,0,0,0,0,0,0,0,0,0,0,0,0,0,0],"sum_hessian":[2.3011008E4,6.2131055E3,1.6797902E4,3.8547603E3,2.3583452E3,1.0890277E4,5.907624E3,1.4397528E3,2.4150073E3,1.6869554E3,6.7138983E2,8.22643E3,2.6638481E3,5.355725E2,5.372052E3,1.1875807E3,2.5217212E2,1.2000581E3,1.2149493E3,3.512941E2,1.3356613E3,6.0810175E2,6.3288055E1,4.5207858E2,7.7743506E3,1.4188859E3,1.2449623E3,4.2701456E2,1.08557945E2,4.4542905E3,9.17761E2],"tree_param":{"num_deleted":"0","num_feature":"51","num_nodes":"31","size_leaf_vector":"1"}},{"base_weights":[3.3694648E-3,2.806606E-1,-1.00110754E-1,4.92022E-1,1.5005863E-1,-1.7674091E-1,1.9931076E-2,5.712721E-1,3.8633817E-1,5.5854216E-2,2.8661007E-1,-1.1093425E-1,-2.9759076E-1,1.2283445E-1,-9.4211325E-2,3.0581532E-2,1.2086722E-2,1.2641042E-2,2.750639E-2,6.3628256E-3,-5.090245E-3,2.0046962E-2,1.0133072E-2,-9.958218E-3,-1.1467484E-3,-1.3038451E-2,-2.1241514E-2,-1.1294974E-2,8.104222E-3,-2.0631242E-3,-1.4303974E-2],"categories":[],"categories_nodes":[],"categories_segments":[],"categories_sizes":[],"default_left":[0,0,0,0,0,0,0,0,0,0,0,0,0,0,0,0,0,0,0,0,0,0,0,0,0,0,0,0,0,0,0],"id":15,"left_children":[1,3,5,7,9,11,13,15,17,19,21,23,25,27,29,-1,-1,-1,-1,-1,-1,-1,-1,-1,-1,-1,-1,-1,-1,-1,-1],"loss_changes":[6.613831E2,1.7283939E2,1.5440964E2,1.9812561E1,4.9806725E1,8.144534E1,7.684066E1,1.8003601E1,2.2344055E1,2.582784E1,1.5092163E1,5.1509956E1,1.680954E1,4.7127094E1,3.1499462E1,0E0,0E0,0E0,0E0,0E0,0E0,0E0,0E0,0E0,0E0,0E0,0E0,0E0,0E0,0E0,0E0],"parents":[2147483647,0,0,1,1,2,2,3,3,4,4,5,5,6,6,7,7,8,8,9,9,10,10,11,11,12,12,13,13,14,14],"right_children":[2,4,6,8,10,12,14,16,18,20,22,24,26,28,30,-1,-1,-1,-1,-1,-1,-1,-1,-1,-1,-1,-1,-1,-1,-1,-1],"split_conditions":[1.9214286E-2,6.95551E4,1E0,1.3986001E0,1E0,2.855907E5,1.988298E5,1.02925245E-2,1E0,7.459683E6,1.147758E5,1E0,7.127687E5,3.3391432E6,6.1605225E1,3.0581532E-2,1.2086722E-2,1.2641042E-2,2.750639E-2,6.3628256E-3,-5.090245E-3,2.0046962E-2,1.0133072E-2,-9.958218E-3,-1.1467484E-3,-1.3038451E-2,-2.1241514E-2,-1.1294974E-2,8.104222E-3,-2.0631242E-3,-1.4303974E-2],"split_indices":[45,1,41,4,41,1,1,17,41,24,1,40,1,24,2,0,0,0,0,0,0,0,0,0,0,0,0,0,0,0,0],"split_type":[0,0,0,0,0,0,0,0,0,0,0,0,0,0,0,0,0,0,0,0,0,0,0,0,0,0,0,0,0,0,0],"sum_hessian":[2.304743E4,6.2630127E3,1.6784416E4,2.3909004E3,3.8721123E3,1.0244343E4,6.540073E3,1.3638058E3,1.0270946E3,2.292184E3,1.5799283E3,6.6338916E3,3.6104517E3,3.439325E3,3.100748E3,1.2142413E3,1.4956442E2,5.6723883E2,4.5985583E2,1.5778044E3,7.143797E2,6.673255E2,9.126028E2,3.3119707E3,3.3219207E3,2.8024905E3,8.079612E2,3.4745456E2,3.0918704E3,2.4310728E3,6.696753E2],"tree_param":{"num_deleted":"0","num_feature":"51","num_nodes":"31","size_leaf_vector":"1"}},{"base_weights":[4.6758805E-3,-1.7785361E-1,5.5235703E-2,-2.637634E-1,-9.062895E-2,4.9033626E-3,1.07774995E-1,-2.1066E-1,-3.413765E-1,-7.361575E-2,-5.323258E-1,5.2352563E-2,-7.072242E-2,9.848268E-2,4.0267572E-1,-1.330779E-2,-3.7507948E-3,-1.1714128E-2,-2.1170883E-2,-1.7705383E-3,-1.1724735E-2,-5.8979024E-3,-2.9347507E-2,6.0691456E-3,-3.5346427E-5,-1.22505985E-2,-2.6227965E-3,4.3076565E-3,1.1830977E-2,2.9929355E-2,7.114804E-3],"categories":[],"categories_nodes":[],"categories_segments":[],"categories_sizes":[],"default_left":[0,0,0,0,0,0,0,0,0,0,0,0,0,0,0,0,0,0,0,0,0,0,0,0,0,0,0,0,0,0,0],"id":16,"left_children":[1,3,5,7,9,11,13,15,17,19,21,23,25,27,29,-1,-1,-1,-1,-1,-1,-1,-1,-1,-1,-1,-1,-1,-1,-1,-1],"loss_changes":[2.118842E2,3.729471E1,4.7543964E1,1.0266785E1,1.854231E1,3.295753E1,2.406594E1,1.1211479E1,8.840233E0,1.4633255E1,2.0029526E0,2.0670753E1,1.126029E1,1.4506386E1,1.3605846E1,0E0,0E0,0E0,0E0,0E0,0E0,0E0,0E0,0E0,0E0,0E0,0E0,0E0,0E0,0E0,0E0],"parents":[2147483647,0,0,1,1,2,2,3,3,4,4,5,5,6,6,7,7,8,8,9,9,10,10,11,11,12,12,13,13,14,14],"right_children":[2,4,6,8,10,12,14,16,18,20,22,24,26,28,30,-1,-1,-1,-1,-1,-1,-1,-1,-1,-1,-1,-1,-1,-1,-1,-1],"split_conditions":[1.6571429E-2,9.571428E-3,7.788989E-3,1.336582E0,3.0370083E0,1E0,1.9870909E-1,6.8589745E1,-9.536525E-4,4.077435E-2,1.1747203E-2,1E0,2.243E0,1E0,1E0,-1.330779E-2,-3.7507948E-3,-1.1714128E-2,-2.1170883E-2,-1.7705383E-3,-1.1724735E-2,-5.8979024E-3,-2.9347507E-2,6.0691456E-3,-3.5346427E-5,-1.22505985E-2,-2.6227965E-3,4.3076565E-3,1.1830977E-2,2.9929355E-2,7.114804E-3],"split_indices":[45,45,14,4,50,41,7,26,15,9,5,21,0,18,41,0,0,0,0,0,0,0,0,0,0,0,0,0,0,0,0],"split_type":[0,0,0,0,0,0,0,0,0,0,0,0,0,0,0,0,0,0,0,0,0,0,0,0,0,0,0,0,0,0,0],"sum_hessian":[2.2957305E4,4.9791636E3,1.797814E4,2.5074695E3,2.471694E3,9.182476E3,8.795665E3,1.4910188E3,1.01645074E3,2.3811443E3,9.054982E1,5.642537E3,3.539938E3,8.528273E3,2.6739178E2,1.0574315E3,4.3358725E2,4.425784E2,5.738724E2,1.9251793E3,4.55965E2,1.0914479E1,7.963534E1,2.4516523E3,3.190885E3,3.3463257E2,3.2053054E3,7.830938E3,6.97335E2,1.5184425E2,1.1554753E2],"tree_param":{"num_deleted":"0","num_feature":"51","num_nodes":"31","size_leaf_vector":"1"}},{"base_weights":[1.7993321E-3,-1.4677697E-1,4.639315E-2,-2.1796615E-1,-1.681188E-2,-2.2861778E-3,1.3213427E-1,-3.073916E-1,-1.4117394E-1,-1.08945616E-1,1.19963415E-1,-2.7723815E-2,7.127913E-2,-7.6539977E-3,1.5730876E-1,-1.7833626E-2,-7.3709027E-3,3.315019E-3,-9.79196E-3,-2.011228E-2,-4.049217E-3,-1.218779E-2,9.580548E-3,5.0752233E-3,-1.9130459E-3,2.815858E-3,1.6225388E-2,-9.2548475E-4,3.612184E-2,6.961861E-3,1.50652E-2],"categories":[],"categories_nodes":[],"categories_segments":[],"categories_sizes":[],"default_left":[0,0,0,0,0,0,0,0,0,0,0,0,0,0,0,0,0,0,0,0,0,0,0,0,0,0,0,0,0,0,0],"id":17,"left_children":[1,3,5,7,9,11,13,15,17,19,21,23,25,27,29,-1,-1,-1,-1,-1,-1,-1,-1,-1,-1,-1,-1,-1,-1,-1,-1],"loss_changes":[1.5178497E2,4.8926903E1,7.354428E1,2.3420746E1,2.3612518E1,2.103613E1,2.2456825E1,1.2385666E1,2.0883E1,9.148482E0,1.9701706E1,1.1377966E1,1.0925006E1,7.7388983E0,1.4029053E1,0E0,0E0,0E0,0E0,0E0,0E0,0E0,0E0,0E0,0E0,0E0,0E0,0E0,0E0,0E0,0E0],"parents":[2147483647,0,0,1,1,2,2,3,3,4,4,5,5,6,6,7,7,8,8,9,9,10,10,11,11,12,12,13,13,14,14],"right_children":[2,4,6,8,10,12,14,16,18,20,22,24,26,28,30,-1,-1,-1,-1,-1,-1,-1,-1,-1,-1,-1,-1,-1,-1,-1,-1],"split_conditions":[1.985E0,1E0,1E0,1.3970132E0,4.6935487E-3,1.0118965E-2,4.5272135E-3,2.9392357E-3,1.5613967E0,4.458024E-3,-1.21943634E2,-4.5E-2,1.6925894E2,9.980578E6,3.0927835E-2,-1.7833626E-2,-7.3709027E-3,3.315019E-3,-9.79196E-3,-2.011228E-2,-4.049217E-3,-1.218779E-2,9.580548E-3,5.0752233E-3,-1.9130459E-3,2.815858E-3,1.6225388E-2,-9.2548475E-4,3.612184E-2,6.961861E-3,1.50652E-2],"split_indices":[0,42,42,50,14,14,14,6,4,5,28,46,28,24,16,0,0,0,0,0,0,0,0,0,0,0,0,0,0,0,0],"split_type":[0,0,0,0,0,0,0,0,0,0,0,0,0,0,0,0,0,0,0,0,0,0,0,0,0,0,0,0,0,0,0],"sum_hessian":[2.2906889E4,5.287585E3,1.7619305E4,3.4158533E3,1.8717316E3,1.123923E4,6.3800737E3,1.5767296E3,1.8391238E3,1.1184988E3,7.5323285E2,8.351906E3,2.8873245E3,9.737504E2,5.406323E3,1.2044589E3,3.7227075E2,3.834771E2,1.4556466E3,9.618457E1,1.0223142E3,1.235629E2,6.296699E2,6.290107E2,7.7228955E3,2.727399E3,1.5992554E2,9.604443E2,1.330617E1,4.8052295E3,6.0109393E2],"tree_param":{"num_deleted":"0","num_feature":"51","num_nodes":"31","size_leaf_vector":"1"}},{"base_weights":[-7.1485434E-4,3.145948E-1,-8.399977E-2,4.5052978E-1,1.4733683E-1,-1.7811913E-3,-2.0100851E-1,3.6935678E-1,5.567148E-1,3.7506908E-1,8.5610814E-2,-8.181228E-2,1.10750794E-1,-2.6114422E-1,-9.6361846E-2,4.5485105E-2,1.6464442E-2,2.9320324E-2,8.981895E-3,2.0478575E-2,-3.0572845E-2,3.0376248E-3,3.560703E-2,-1.0991945E-2,6.5195176E-4,-1.3051144E-2,7.342834E-3,-2.0889686E-2,-8.968359E-3,-1.3739136E-3,-1.0532768E-2],"categories":[],"categories_nodes":[],"categories_segments":[],"categories_sizes":[],"default_left":[0,0,0,0,0,0,0,0,0,0,0,0,0,0,0,0,0,0,0,0,0,0,0,0,0,0,0,0,0,0,0],"id":18,"left_children":[1,3,5,7,9,11,13,15,17,19,21,23,25,27,29,-1,-1,-1,-1,-1,-1,-1,-1,-1,-1,-1,-1,-1,-1,-1,-1],"loss_changes":[6.0351135E2,1.0911157E2,1.74894E2,2.2622986E1,3.025246E1,9.617753E1,4.7188293E1,3.2263336E1,1.2719818E1,1.5877907E1,2.6375504E1,8.170758E1,5.961578E1,6.0953186E1,2.1562632E1,0E0,0E0,0E0,0E0,0E0,0E0,0E0,0E0,0E0,0E0,0E0,0E0,0E0,0E0,0E0,0E0],"parents":[2147483647,0,0,1,1,2,2,3,3,4,4,5,5,6,6,7,7,8,8,9,9,10,10,11,11,12,12,13,13,14,14],"right_children":[2,4,6,8,10,12,14,16,18,20,22,24,26,28,30,-1,-1,-1,-1,-1,-1,-1,-1,-1,-1,-1,-1,-1,-1,-1,-1],"split_conditions":[1.5470751E-2,8.36092E4,2.314267E5,1E0,7.826907E-3,1E0,1E0,3.9285715E-3,8.330315E-3,2.145926E-3,8.224962E-3,1E0,3.3391432E6,1E0,5.6177353E1,4.5485105E-2,1.6464442E-2,2.9320324E-2,8.981895E-3,2.0478575E-2,-3.0572845E-2,3.0376248E-3,3.560703E-2,-1.0991945E-2,6.5195176E-4,-1.3051144E-2,7.342834E-3,-2.0889686E-2,-8.968359E-3,-1.3739136E-3,-1.0532768E-2],"split_indices":[5,1,1,41,5,41,41,45,12,8,14,43,24,43,49,0,0,0,0,0,0,0,0,0,0,0,0,0,0,0,0],"split_type":[0,0,0,0,0,0,0,0,0,0,0,0,0,0,0,0,0,0,0,0,0,0,0,0,0,0,0,0,0,0,0],"sum_hessian":[2.2979674E4,4.800941E3,1.8178734E4,2.6475295E3,2.1534111E3,1.0677198E4,7.5015356E3,1.5030233E3,1.1445063E3,4.5812524E2,1.6952859E3,6.23981E3,4.437388E3,4.762974E3,2.7385615E3,1.0226064E2,1.4007627E3,1.0604495E3,8.405682E1,4.4320944E2,1.4915801E1,1.6316454E3,6.3640526E1,2.5409417E3,3.6988684E3,3.922504E2,4.0451375E3,1.632226E3,3.1307483E3,1.709502E3,1.0290594E3],"tree_param":{"num_deleted":"0","num_feature":"51","num_nodes":"31","size_leaf_vector":"1"}},{"base_weights":[-2.3024972E-3,-1.7608772E-1,4.464596E-2,-2.8100383E-1,-1.10204004E-1,5.5530043E-3,1.7740665E-1,-3.4381217E-1,-2.0265926E-1,-1.6179638E-1,-2.6340896E-2,1.4050156E-1,-1.2148597E-2,7.8123826E-1,1.655874E-1,-5.2443054E-3,-1.8221986E-2,4.560195E-3,-1.1826313E-2,-6.0958667E-3,-1.4604819E-2,3.7187293E-2,-1.9832947E-3,7.371013E-3,-2.2971263E-2,-2.7471639E-3,2.447008E-3,4.407079E-2,1.0663523E-2,6.727095E-3,1.6500706E-2],"categories":[],"categories_nodes":[],"categories_segments":[],"categories_sizes":[],"default_left":[0,0,0,0,0,0,0,0,0,0,0,0,0,0,0,0,0,0,0,0,0,0,0,0,0,0,0,0,0,0,0],"id":19,"left_children":[1,3,5,7,9,11,13,15,17,19,21,23,25,27,29,-1,-1,-1,-1,-1,-1,-1,-1,-1,-1,-1,-1,-1,-1,-1,-1],"loss_changes":[1.8740475E2,3.37381E1,9.3854485E1,9.200043E0,1.29869E1,3.3376247E1,2.9229172E1,5.107834E0,8.388199E0,9.622898E0,1.1776875E1,6.7927456E0,3.2294235E1,4.290146E0,2.0557945E1,0E0,0E0,0E0,0E0,0E0,0E0,0E0,0E0,0E0,0E0,0E0,0E0,0E0,0E0,0E0,0E0],"parents":[2147483647,0,0,1,1,2,2,3,3,4,4,5,5,6,6,7,7,8,8,9,9,10,10,11,11,12,12,13,13,14,14],"right_children":[2,4,6,8,10,12,14,16,18,20,22,24,26,28,30,-1,-1,-1,-1,-1,-1,-1,-1,-1,-1,-1,-1,-1,-1,-1,-1],"split_conditions":[1.6357142E-2,6.56225E4,5.8640827E1,4.959587E1,5.2417393E1,-1.7069701E-2,3.2919326E-3,-9.551406E-3,-6.014991E-4,-6.014991E-4,-4.1467776E-3,4.8418697E-2,4.853492E1,-3.5460992E0,8.485E0,-5.2443054E-3,-1.8221986E-2,4.560195E-3,-1.1826313E-2,-6.0958667E-3,-1.4604819E-2,3.7187293E-2,-1.9832947E-3,7.371013E-3,-2.2971263E-2,-2.7471639E-3,2.447008E-3,4.407079E-2,1.0663523E-2,6.727095E-3,1.6500706E-2],"split_indices":[45,1,49,49,49,11,6,12,6,6,7,16,49,27,0,0,0,0,0,0,0,0,0,0,0,0,0,0,0,0,0],"split_type":[0,0,0,0,0,0,0,0,0,0,0,0,0,0,0,0,0,0,0,0,0,0,0,0,0,0,0,0,0,0,0],"sum_hessian":[2.2967266E4,4.884386E3,1.8082879E4,1.8828262E3,3.00156E3,1.3970224E4,4.112656E3,1.0431506E3,8.396756E2,1.8577485E3,1.1438115E3,1.619209E3,1.2351015E4,7.770497E1,4.0349507E3,8.338604E1,9.597646E2,8.65955E1,7.530801E2,1.4238934E3,4.33855E2,1.852265E1,1.125289E3,1.601494E3,1.7715057E1,7.263085E3,5.087929E3,6.5585236E1,1.2119734E1,3.395637E3,6.393137E2],"tree_param":{"num_deleted":"0","num_feature":"51","num_nodes":"31","size_leaf_vector":"1"}},{"base_weights":[-3.4615465E-3,-2.2071834E-1,2.7643664E-2,-2.873127E-1,-1.0538661E-1,-2.3683293E-2,1.19583845E-1,-3.1673864E-1,-9.431926E-2,8.5104173E-1,-1.2474862E-1,-1.6048893E-1,-6.3249785E-3,-6.978908E-3,1.4522524E-1,-1.2658179E-2,-1.9687673E-2,-8.732963E-3,9.5983045E-3,5.393985E-2,-5.893304E-3,-2.6548458E-2,-4.7411015E-3,2.7619112E-2,-8.6707035E-3,9.959951E-3,-8.721131E-4,3.5643762E-3,-5.3972164E-3,6.0022436E-3,1.260054E-2],"categories":[],"categories_nodes":[],"categories_segments":[],"categories_sizes":[],"default_left":[0,0,0,0,0,0,0,0,0,0,0,0,0,0,0,0,0,0,0,0,0,0,0,0,0,0,0,0,0,0,0],"id":20,"left_children":[1,3,5,7,9,11,13,15,17,19,21,23,25,27,29,-1,-1,-1,-1,-1,-1,-1,-1,-1,-1,-1,-1,-1,-1,-1,-1],"loss_changes":[1.5545685E2,2.2097473E1,9.496367E1,1.0339218E1,1.9665154E1,3.0667454E1,2.3397491E1,7.655319E0,5.6222057E0,4.780113E0,1.2545404E1,1.3493774E1,2.6191479E1,9.61291E0,1.6089546E1,0E0,0E0,0E0,0E0,0E0,0E0,0E0,0E0,0E0,0E0,0E0,0E0,0E0,0E0,0E0,0E0],"parents":[2147483647,0,0,1,1,2,2,3,3,4,4,5,5,6,6,7,7,8,8,9,9,10,10,11,11,12,12,13,13,14,14],"right_children":[2,4,6,8,10,12,14,16,18,20,22,24,26,28,30,-1,-1,-1,-1,-1,-1,-1,-1,-1,-1,-1,-1,-1,-1,-1,-1],"split_conditions":[1.06934E-2,1E0,1E0,1.0178117E-2,-8.8083595E-3,1.9418153E0,4.630216E-3,4.866415E1,1.408471E5,4.8125293E-2,1.0251086E0,4.587156E0,3.1065393E1,4.853492E1,7.733706E1,-1.2658179E-2,-1.9687673E-2,-8.732963E-3,9.5983045E-3,5.393985E-2,-5.893304E-3,-2.6548458E-2,-4.7411015E-3,2.7619112E-2,-8.6707035E-3,9.959951E-3,-8.721131E-4,3.5643762E-3,-5.3972164E-3,6.0022436E-3,1.260054E-2],"split_indices":[5,42,42,13,7,3,14,49,1,9,50,25,49,49,26,0,0,0,0,0,0,0,0,0,0,0,0,0,0,0,0],"split_type":[0,0,0,0,0,0,0,0,0,0,0,0,0,0,0,0,0,0,0,0,0,0,0,0,0,0,0,0,0,0,0],"sum_hessian":[2.3002098E4,2.880052E3,2.0122045E4,1.8248589E3,1.0551931E3,1.2913588E4,7.208458E3,1.5828746E3,2.4198424E2,2.0085243E1,1.0351078E3,1.4530957E3,1.1460492E4,1.2145111E3,5.993947E3,8.694438E2,7.1343085E2,1.8926178E2,5.2722454E1,1.6170685E1,3.9145591E0,6.987599E1,9.652319E2,2.5133791E1,1.4279619E3,5.8724475E2,1.0873247E4,6.843276E2,5.301835E2,4.8519624E3,1.1419841E3],"tree_param":{"num_deleted":"0","num_feature":"51","num_nodes":"31","size_leaf_vector":"1"}},{"base_weights":[7.8586163E-4,2.6177505E-1,-9.179972E-2,4.4561002E-1,1.4142214E-1,-1.3608368E-2,-2.4349383E-1,5.1751095E-1,3.302205E-1,6.1028216E-2,2.6156998E-1,8.66415E-2,-8.194021E-2,-2.0907341E-1,-3.9515477E-1,2.4045952E-2,3.58908E-2,9.719824E-3,2.4427762E-2,-4.2380756E-3,8.026812E-3,-1.2531968E-2,1.4346448E-2,-1.5479962E-2,6.84534E-3,-1.8281296E-3,-1.00209825E-2,-1.1573852E-2,-2.4910083E-3,-2.2239033E-2,-1.1670555E-2],"categories":[],"categories_nodes":[],"categories_segments":[],"categories_sizes":[],"default_left":[0,0,0,0,0,0,0,0,0,0,0,0,0,0,0,0,0,0,0,0,0,0,0,0,0,0,0,0,0,0,0],"id":21,"left_children":[1,3,5,7,9,11,13,15,17,19,21,23,25,27,29,-1,-1,-1,-1,-1,-1,-1,-1,-1,-1,-1,-1,-1,-1,-1,-1],"loss_changes":[5.544558E2,1.328746E2,2.0089203E2,1.9548523E1,3.507245E1,7.657518E1,2.9990295E1,1.0374847E1,1.9587395E1,3.1605885E1,1.8983658E1,9.0288315E1,3.5730858E1,1.674791E1,8.440475E0,0E0,0E0,0E0,0E0,0E0,0E0,0E0,0E0,0E0,0E0,0E0,0E0,0E0,0E0,0E0,0E0],"parents":[2147483647,0,0,1,1,2,2,3,3,4,4,5,5,6,6,7,7,8,8,9,9,10,10,11,11,12,12,13,13,14,14],"right_children":[2,4,6,8,10,12,14,16,18,20,22,24,26,28,30,-1,-1,-1,-1,-1,-1,-1,-1,-1,-1,-1,-1,-1,-1,-1,-1],"split_conditions":[1.8357143E-2,6.95551E4,1E0,8.512176E-3,1E0,1.48302E5,5.048214E5,4.106863E-3,1E0,1E0,-9.210526E1,3.3391432E6,1.0129974E-1,1E0,1.0464575E-1,2.4045952E-2,3.58908E-2,9.719824E-3,2.4427762E-2,-4.2380756E-3,8.026812E-3,-1.2531968E-2,1.4346448E-2,-1.5479962E-2,6.84534E-3,-1.8281296E-3,-1.00209825E-2,-1.1573852E-2,-2.4910083E-3,-2.2239033E-2,-1.1670555E-2],"split_indices":[45,1,42,5,41,1,1,14,41,43,27,24,5,41,9,0,0,0,0,0,0,0,0,0,0,0,0,0,0,0,0],"split_type":[0,0,0,0,0,0,0,0,0,0,0,0,0,0,0,0,0,0,0,0,0,0,0,0,0,0,0,0,0,0,0],"sum_hessian":[2.2943693E4,6.0074595E3,1.6936234E4,2.3758013E3,3.6316582E3,1.1176402E4,5.759833E3,1.4615828E3,9.1421857E2,2.1766892E3,1.4549691E3,4.5300635E3,6.6463384E3,4.6963457E3,1.0634873E3,1.2386973E3,2.2288551E2,4.9328906E2,4.2092953E2,8.8306067E2,1.2936284E3,6.8216934E1,1.3867522E3,5.0938986E2,4.0206733E3,4.8066865E3,1.8396521E3,4.1167505E3,5.795951E2,8.1246E2,2.5102731E2],"tree_param":{"num_deleted":"0","num_feature":"51","num_nodes":"31","size_leaf_vector":"1"}},{"base_weights":[-1.1795051E-3,-1.9294119E-1,3.946376E-2,-3.0458966E-1,-1.3268737E-1,1.2309531E-2,2.0367739E-1,-3.708903E-1,-2.2538774E-1,8.217257E-3,-1.8365885E-1,1.568271E-1,-3.5728642E-3,1.628851E-1,3.3437133E-1,-1.0949224E-2,-2.080906E-2,-1.4131497E-2,-1.6210274E-3,-1.4298009E-2,2.7329447E-3,-1.3708243E-2,-5.7925074E-3,1.5967181E-2,6.1565526E-3,-2.7585053E-3,2.6273842E-3,2.342177E-2,6.910857E-3,4.9125414E-2,1.5319556E-2],"categories":[],"categories_nodes":[],"categories_segments":[],"categories_sizes":[],"default_left":[0,0,0,0,0,0,0,0,0,0,0,0,0,0,0,0,0,0,0,0,0,0,0,0,0,0,0,0,0,0,0],"id":22,"left_children":[1,3,5,7,9,11,13,15,17,19,21,23,25,27,29,-1,-1,-1,-1,-1,-1,-1,-1,-1,-1,-1,-1,-1,-1,-1,-1],"loss_changes":[1.7829765E2,2.6873413E1,8.416779E1,7.2760315E0,1.86764E1,3.7181267E1,1.4224739E1,5.1469116E0,7.0732155E0,9.465591E0,1.1687012E1,8.744335E0,4.2267307E1,1.5335476E1,1.1235855E1,0E0,0E0,0E0,0E0,0E0,0E0,0E0,0E0,0E0,0E0,0E0,0E0,0E0,0E0,0E0,0E0],"parents":[2147483647,0,0,1,1,2,2,3,3,4,4,5,5,6,6,7,7,8,8,9,9,10,10,11,11,12,12,13,13,14,14],"right_children":[2,4,6,8,10,12,14,16,18,20,22,24,26,28,30,-1,-1,-1,-1,-1,-1,-1,-1,-1,-1,-1,-1,-1,-1,-1,-1],"split_conditions":[1.4115125E-2,5.53402E4,6.2660896E1,4.959587E1,7.116975E6,-1.0002488E-2,9.671619E-2,-3.9238483E-3,1E0,1.0274895E0,9.390014E-3,2.02645E5,4.8086956E1,7.605835E-3,5.6088913E1,-1.0949224E-2,-2.080906E-2,-1.4131497E-2,-1.6210274E-3,-1.4298009E-2,2.7329447E-3,-1.3708243E-2,-5.7925074E-3,1.5967181E-2,6.1565526E-3,-2.7585053E-3,2.6273842E-3,2.342177E-2,6.910857E-3,4.9125414E-2,1.5319556E-2],"split_indices":[5,1,49,49,24,10,5,15,31,4,5,1,49,7,2,0,0,0,0,0,0,0,0,0,0,0,0,0,0,0,0],"split_type":[0,0,0,0,0,0,0,0,0,0,0,0,0,0,0,0,0,0,0,0,0,0,0,0,0,0,0,0,0,0,0],"sum_hessian":[2.287482E4,3.9997214E3,1.88751E4,1.400529E3,2.5991924E3,1.619773E4,2.6773682E3,7.6035016E2,6.401789E2,6.906927E2,1.9084996E3,1.6029792E3,1.4594752E4,2.0422012E3,6.351669E2,1.7597258E2,5.8437756E2,4.9336218E2,1.468167E2,9.346916E1,5.972235E2,8.1613745E2,1.0923622E3,2.7382758E2,1.3291516E3,7.6038174E3,6.990934E3,1.5121268E2,1.8909885E3,2.4873762E1,6.1029315E2],"tree_param":{"num_deleted":"0","num_feature":"51","num_nodes":"31","size_leaf_vector":"1"}},{"base_weights":[-4.7953953E-3,-2.2696184E-1,2.143467E-2,-2.9561496E-1,-1.0088062E-1,-2.6842117E-2,1.06201164E-1,-3.405651E-1,-1.5987751E-1,-5.3121316E-1,-6.5624766E-2,-5.477682E-2,6.962699E-2,4.3863844E-2,1.5218371E-1,-1.7208314E-2,3.7996124E-2,-1.0106387E-2,1.1873226E-2,-3.4624133E-2,-1.9272672E-2,-2.2495423E-2,-1.0748511E-3,-3.425141E-3,2.630514E-3,2.842849E-2,3.2267326E-3,-1.3441445E-2,2.789428E-3,6.3598803E-3,1.1401389E-2],"categories":[],"categories_nodes":[],"categories_segments":[],"categories_sizes":[],"default_left":[0,0,0,0,0,0,0,0,0,0,0,0,0,0,0,0,0,0,0,0,0,0,0,0,0,0,0,0,0,0,0],"id":23,"left_children":[1,3,5,7,9,11,13,15,17,19,21,23,25,27,29,-1,-1,-1,-1,-1,-1,-1,-1,-1,-1,-1,-1,-1,-1,-1,-1],"loss_changes":[1.3412286E2,2.1007423E1,8.4243965E1,9.5434265E0,1.2987826E1,3.5350735E1,2.1405449E1,4.941208E0,6.64925E0,1.2576256E0,1.34630375E1,1.4996784E1,7.4478025E0,1.1844368E1,8.116875E0,0E0,0E0,0E0,0E0,0E0,0E0,0E0,0E0,0E0,0E0,0E0,0E0,0E0,0E0,0E0,0E0],"parents":[2147483647,0,0,1,1,2,2,3,3,4,4,5,5,6,6,7,7,8,8,9,9,10,10,11,11,12,12,13,13,14,14],"right_children":[2,4,6,8,10,12,14,16,18,20,22,24,26,28,30,-1,-1,-1,-1,-1,-1,-1,-1,-1,-1,-1,-1,-1,-1,-1,-1],"split_conditions":[1.3970132E0,1E0,1E0,2.5881433E-3,1.0251086E0,9.3819536E-2,3.4571428E-2,2.1008404E-2,1.6925894E2,-4.842615E-3,4E-2,1.2658493E2,2.2805645E1,8.052734E-3,7.297298E1,-1.7208314E-2,3.7996124E-2,-1.0106387E-2,1.1873226E-2,-3.4624133E-2,-1.9272672E-2,-2.2495423E-2,-1.0748511E-3,-3.425141E-3,2.630514E-3,2.842849E-2,3.2267326E-3,-1.3441445E-2,2.789428E-3,6.3598803E-3,1.1401389E-2],"split_indices":[50,42,42,6,50,5,45,11,28,17,37,28,2,5,25,0,0,0,0,0,0,0,0,0,0,0,0,0,0,0,0],"split_type":[0,0,0,0,0,0,0,0,0,0,0,0,0,0,0,0,0,0,0,0,0,0,0,0,0,0,0,0,0,0,0],"sum_hessian":[2.3013908E4,2.4294045E3,2.0584504E4,1.5720532E3,8.573514E2,1.3115537E4,7.4689663E3,1.1798356E3,3.9221756E2,6.385618E1,7.934952E2,1.0170797E4,2.9447407E3,3.1714585E3,4.297508E3,1.1766725E3,3.1631963E0,3.5496472E2,3.7252842E1,2.8534546E1,3.5321636E1,8.078537E1,7.1270984E2,9.01844E3,1.1523566E3,2.8633207E1,2.9161077E3,1.15711044E2,3.0557473E3,3.2345828E3,1.0629253E3],"tree_param":{"num_deleted":"0","num_feature":"51","num_nodes":"31","size_leaf_vector":"1"}},{"base_weights":[-2.7449543E-3,2.8225678E-1,-8.364326E-2,4.5063245E-1,1.4403747E-1,-9.0841325E-3,-2.2714894E-1,4.5999926E-1,-2.8749028E-1,3.5596102E-1,8.466443E-2,3.6960103E-2,-1.6959457E-1,2.8394645E-2,-2.4704973E-1,1.9789701E-2,2.7290259E-2,-2.2708902E-2,4.1592687E-2,2.0432066E-2,-8.008696E-4,9.012827E-3,-1.4625381E-3,-1.4299889E-2,3.3538179E-3,-2.0987457E-3,-1.1469069E-2,-1.941031E-2,6.1307494E-3,-9.080716E-3,-1.5553206E-2],"categories":[],"categories_nodes":[],"categories_segments":[],"categories_sizes":[],"default_left":[0,0,0,0,0,0,0,0,0,0,0,0,0,0,0,0,0,0,0,0,0,0,0,0,0,0,0,0,0,0,0],"id":24,"left_children":[1,3,5,7,9,11,13,15,17,19,21,23,25,27,29,-1,-1,-1,-1,-1,-1,-1,-1,-1,-1,-1,-1,-1,-1,-1,-1],"loss_changes":[5.28998E2,1.1799225E2,1.912127E2,1.5940308E1,3.504151E1,8.693273E1,3.1081146E1,1.222467E1,5.8384295E0,1.1954025E1,2.3729267E1,8.892447E1,1.999665E1,1.7411474E1,2.3689667E1,0E0,0E0,0E0,0E0,0E0,0E0,0E0,0E0,0E0,0E0,0E0,0E0,0E0,0E0,0E0,0E0],"parents":[2147483647,0,0,1,1,2,2,3,3,4,4,5,5,6,6,7,7,8,8,9,9,10,10,11,11,12,12,13,13,14,14],"right_children":[2,4,6,8,10,12,14,16,18,20,22,24,26,28,30,-1,-1,-1,-1,-1,-1,-1,-1,-1,-1,-1,-1,-1,-1,-1,-1],"split_conditions":[1.5571428E-2,6.95551E4,1E0,7.8432255E6,7.826907E-3,3.308249E5,4.0731267E-3,1E0,4.8697684E-3,7.4943495E0,1.382646E5,3.3391432E6,4.2928573E-2,2.7513328E0,-4.8223344E-4,1.9789701E-2,2.7290259E-2,-2.2708902E-2,4.1592687E-2,2.0432066E-2,-8.008696E-4,9.012827E-3,-1.4625381E-3,-1.4299889E-2,3.3538179E-3,-2.0987457E-3,-1.1469069E-2,-1.941031E-2,6.1307494E-3,-9.080716E-3,-1.5553206E-2],"split_indices":[45,1,42,24,5,1,14,41,14,48,1,24,45,4,8,0,0,0,0,0,0,0,0,0,0,0,0,0,0,0,0],"split_type":[0,0,0,0,0,0,0,0,0,0,0,0,0,0,0,0,0,0,0,0,0,0,0,0,0,0,0,0,0,0,0],"sum_hessian":[2.2941867E4,5.0717593E3,1.7870107E4,2.285434E3,2.7863252E3,1.1760791E4,6.1093174E3,2.2571672E3,2.8266764E1,6.086918E2,2.1776333E3,9.139727E3,2.6210642E3,4.4136603E2,5.667951E3,1.294303E3,9.6286426E2,2.5120218E1,3.146545E0,5.330953E2,7.5596504E1,1.1837257E3,9.9390765E2,7.788689E2,8.360858E3,8.367205E2,1.7843438E3,8.08339E1,3.605321E2,2.8047637E3,2.8631875E3],"tree_param":{"num_deleted":"0","num_feature":"51","num_nodes":"31","size_leaf_vector":"1"}},{"base_weights":[9.663445E-4,-1.649949E-1,4.4672843E-2,-2.2483948E-1,-7.289137E-2,1.7664284E-2,2.0599853E-1,-1.1863509E-1,-2.732335E-1,-1.6672973E-1,1.7257763E-2,1.6076024E-1,2.1337374E-4,5.352433E-1,1.8778014E-1,1.19644385E-4,-9.030401E-3,-1.5910717E-2,-1.010029E-2,-3.2710438E-3,-1.5320695E-2,1.5073234E-2,-3.6004817E-3,9.564653E-3,1.3701275E-3,-2.6585679E-3,2.962896E-3,1.8702557E-2,4.153373E-2,8.412148E-3,1.9395808E-2],"categories":[],"categories_nodes":[],"categories_segments":[],"categories_sizes":[],"default_left":[0,0,0,0,0,0,0,0,0,0,0,0,0,0,0,0,0,0,0,0,0,0,0,0,0,0,0,0,0,0,0],"id":25,"left_children":[1,3,5,7,9,11,13,15,17,19,21,23,25,27,29,-1,-1,-1,-1,-1,-1,-1,-1,-1,-1,-1,-1,-1,-1,-1,-1],"loss_changes":[1.6682408E2,2.6409012E1,7.93169E1,1.4901184E1,1.5988603E1,3.8943092E1,1.5558563E1,6.835575E0,6.328308E0,1.3083902E1,2.4496449E1,6.8969383E0,4.3819786E1,6.181919E0,9.613159E0,0E0,0E0,0E0,0E0,0E0,0E0,0E0,0E0,0E0,0E0,0E0,0E0,0E0,0E0,0E0,0E0],"parents":[2147483647,0,0,1,1,2,2,3,3,4,4,5,5,6,6,7,7,8,8,9,9,10,10,11,11,12,12,13,13,14,14],"right_children":[2,4,6,8,10,12,14,16,18,20,22,24,26,28,30,-1,-1,-1,-1,-1,-1,-1,-1,-1,-1,-1,-1,-1,-1,-1,-1],"split_conditions":[1.6357142E-2,5.143423E1,6.2660896E1,-8.240427E-3,9.357143E-3,-1.7069701E-2,7.327113E-3,-4E-3,4.6177593E1,2.9392357E-3,7.1810805E6,3.221691E-2,4.853492E1,6.6727776E1,1.9870909E-1,1.19644385E-4,-9.030401E-3,-1.5910717E-2,-1.010029E-2,-3.2710438E-3,-1.5320695E-2,1.5073234E-2,-3.6004817E-3,9.564653E-3,1.3701275E-3,-2.6585679E-3,2.962896E-3,1.8702557E-2,4.153373E-2,8.412148E-3,1.9395808E-2],"split_indices":[45,49,49,16,45,11,7,46,49,6,24,7,49,49,7,0,0,0,0,0,0,0,0,0,0,0,0,0,0,0,0],"split_type":[0,0,0,0,0,0,0,0,0,0,0,0,0,0,0,0,0,0,0,0,0,0,0,0,0,0,0,0,0,0,0],"sum_hessian":[2.2996832E4,4.793249E3,1.8203582E4,2.90456E3,1.888689E3,1.5594001E4,2.6095813E3,9.1029663E2,1.9942634E3,9.249927E2,9.636963E2,1.6941234E3,1.3899877E4,1.3533913E2,2.4742422E3,3.0859592E2,6.017007E2,1.2202189E3,7.740445E2,5.369945E2,3.8799817E2,2.2977339E2,7.339229E2,1.3781544E3,3.15969E2,7.2998584E3,6.600019E3,8.902938E1,4.6309742E1,2.2558662E3,2.1837592E2],"tree_param":{"num_deleted":"0","num_feature":"51","num_nodes":"31","size_leaf_vector":"1"}},{"base_weights":[-2.8292525E-3,-2.3444706E-1,2.105949E-2,-3.0142495E-1,-1.1344545E-1,-2.3756633E-2,9.944562E-2,-3.3755326E-1,-1.3585693E-1,-4.6506956E-2,-3.6875588E-1,-9.3885876E-2,9.1749905E-3,-1.3326475E-3,1.3091901E-1,-1.7122898E-2,2.4262782E-2,-1.1453139E-2,5.2480944E-3,-1.9466612E-2,1.2603898E-4,-2.5285939E-2,-2.7492982E-3,3.186671E-4,-6.8487497E-3,7.63001E-3,-2.0501381E-4,5.1561366E-3,-4.374124E-3,5.3613945E-3,1.1753943E-2],"categories":[],"categories_nodes":[],"categories_segments":[],"categories_sizes":[],"default_left":[0,0,0,0,0,0,0,0,0,0,0,0,0,0,0,0,0,0,0,0,0,0,0,0,0,0,0,0,0,0,0],"id":26,"left_children":[1,3,5,7,9,11,13,15,17,19,21,23,25,27,29,-1,-1,-1,-1,-1,-1,-1,-1,-1,-1,-1,-1,-1,-1,-1,-1],"loss_changes":[1.2682605E2,1.7334091E1,7.299666E1,8.202156E0,1.3059929E1,3.0534237E1,2.3974846E1,4.7313232E0,5.6054163E0,1.0209835E1,6.796686E0,1.8251709E1,1.7131538E1,1.6205057E1,1.4188087E1,0E0,0E0,0E0,0E0,0E0,0E0,0E0,0E0,0E0,0E0,0E0,0E0,0E0,0E0,0E0,0E0],"parents":[2147483647,0,0,1,1,2,2,3,3,4,4,5,5,6,6,7,7,8,8,9,9,10,10,11,11,12,12,13,13,14,14],"right_children":[2,4,6,8,10,12,14,16,18,20,22,24,26,28,30,-1,-1,-1,-1,-1,-1,-1,-1,-1,-1,-1,-1,-1,-1,-1,-1],"split_conditions":[1.355E0,1E0,1E0,3.1231195E-3,1.3295304E0,2.863886E-2,4.8697684E-3,2.3928665E2,7.1326305E6,4.458024E-3,6.5E-1,4.3396187E1,3.342928E1,4.6511883E1,7.733706E1,-1.7122898E-2,2.4262782E-2,-1.1453139E-2,5.2480944E-3,-1.9466612E-2,1.2603898E-4,-2.5285939E-2,-2.7492982E-3,3.186671E-4,-6.8487497E-3,7.63001E-3,-2.0501381E-4,5.1561366E-3,-4.374124E-3,5.3613945E-3,1.1753943E-2],"split_indices":[0,42,42,7,4,5,14,28,24,5,37,49,49,49,26,0,0,0,0,0,0,0,0,0,0,0,0,0,0,0,0],"split_type":[0,0,0,0,0,0,0,0,0,0,0,0,0,0,0,0,0,0,0,0,0,0,0,0,0,0,0,0,0,0,0],"sum_hessian":[2.2919617E4,2.1420598E3,2.0777559E4,1.3778751E3,7.6418463E2,1.3219944E4,7.5576133E3,1.1302142E3,2.4766095E2,6.0638257E2,1.578021E2,4.2236523E3,8.996292E3,1.7987968E3,5.7588164E3,1.1240974E3,6.1168222E0,1.7858914E2,6.9071815E1,7.500072E1,5.3138184E2,1.09425354E2,4.8376736E1,1.269845E3,2.9538076E3,7.6125397E2,8.235038E3,8.12932E2,9.858648E2,4.6933457E3,1.0654706E3],"tree_param":{"num_deleted":"0","num_feature":"51","num_nodes":"31","size_leaf_vector":"1"}},{"base_weights":[-4.3403073E-3,2.58071E-1,-8.0292426E-2,4.1229078E-1,1.6371611E-1,-4.2002043E-3,-2.2791538E-1,4.510099E-1,1.3446863E-1,1.5279928E-1,8.038233E-1,-2.2184066E-1,2.5204565E-2,-1.8795112E-1,-3.466958E-1,2.0074718E-2,3.0122695E-2,-5.9207226E-3,2.0777531E-2,1.0541508E-2,2.3996339E-3,4.5108568E-2,-1.3315228E-2,-1.8798362E-2,-7.445873E-3,7.8609865E-3,-8.227816E-4,-4.0604817E-4,-1.0473339E-2,-1.5695287E-2,-2.5400532E-2],"categories":[],"categories_nodes":[],"categories_segments":[],"categories_sizes":[],"default_left":[0,0,0,0,0,0,0,0,0,0,0,0,0,0,0,0,0,0,0,0,0,0,0,0,0,0,0,0,0,0,0],"id":27,"left_children":[1,3,5,7,9,11,13,15,17,19,21,23,25,27,29,-1,-1,-1,-1,-1,-1,-1,-1,-1,-1,-1,-1,-1,-1,-1,-1],"loss_changes":[4.553465E2,7.4556854E1,1.9902591E2,2.0872253E1,2.2122314E1,7.4834816E1,2.8542175E1,1.25625305E1,1.7069874E1,1.9033989E1,5.833618E0,1.5587379E1,5.666042E1,1.7453857E1,7.859375E0,0E0,0E0,0E0,0E0,0E0,0E0,0E0,0E0,0E0,0E0,0E0,0E0,0E0,0E0,0E0,0E0],"parents":[2147483647,0,0,1,1,2,2,3,3,4,4,5,5,6,6,7,7,8,8,9,9,10,10,11,11,12,12,13,13,14,14],"right_children":[2,4,6,8,10,12,14,16,18,20,22,24,26,28,30,-1,-1,-1,-1,-1,-1,-1,-1,-1,-1,-1,-1,-1,-1,-1,-1],"split_conditions":[1.6245062E-2,7.826907E-3,1E0,8.170961E-3,3.5367935E0,4.14914E6,1.2900704E-2,7.3506235E6,5.9E-1,1E0,3.5767915E0,3.0976102E0,2.8347714E-2,4.209259E-3,1E0,2.0074718E-2,3.0122695E-2,-5.9207226E-3,2.0777531E-2,1.0541508E-2,2.3996339E-3,4.5108568E-2,-1.3315228E-2,-1.8798362E-2,-7.445873E-3,7.8609865E-3,-8.227816E-4,-4.0604817E-4,-1.0473339E-2,-1.5695287E-2,-2.5400532E-2],"split_indices":[5,5,42,16,50,24,16,24,37,42,3,50,5,14,18,0,0,0,0,0,0,0,0,0,0,0,0,0,0,0,0],"split_type":[0,0,0,0,0,0,0,0,0,0,0,0,0,0,0,0,0,0,0,0,0,0,0,0,0,0,0,0,0,0,0],"sum_hessian":[2.2844451E4,5.127334E3,1.7717117E4,1.9449735E3,3.1823606E3,1.1691674E4,6.025443E3,1.7065186E3,2.3845493E2,3.1302146E3,5.2146133E1,1.3908325E3,1.0300842E4,4.5104595E3,1.5149835E3,1.2887915E3,4.1772702E2,1.2582855E2,1.1262637E2,2.0140396E3,1.1161749E3,4.790085E1,4.2452846E0,4.453689E2,9.454637E2,2.4702383E3,7.830603E3,4.8213116E2,4.0283284E3,1.2615059E3,2.5347766E2],"tree_param":{"num_deleted":"0","num_feature":"51","num_nodes":"31","size_leaf_vector":"1"}},{"base_weights":[-1.0726857E-3,-1.9842128E-1,3.529758E-2,-2.3972481E-1,-7.454517E-2,1.1857484E-3,1.5436102E-1,-2.9288185E-1,-1.512888E-1,-2.3878717E-1,-1.4189472E-2,1.22110784E-1,-2.0072807E-2,5.6403905E-1,1.4061949E-1,-2.2013789E-2,-1.3342586E-2,5.539137E-2,-8.054227E-3,-2.6924275E-3,-1.759815E-2,-4.2904895E-3,1.0072298E-2,1.0869897E-2,1.7689839E-3,-2.993121E-3,2.567659E-3,4.5386396E-2,2.1872006E-2,5.6457105E-3,1.4484157E-2],"categories":[],"categories_nodes":[],"categories_segments":[],"categories_sizes":[],"default_left":[0,0,0,0,0,0,0,0,0,0,0,0,0,0,0,0,0,0,0,0,0,0,0,0,0,0,0,0,0,0,0],"id":28,"left_children":[1,3,5,7,9,11,13,15,17,19,21,23,25,27,29,-1,-1,-1,-1,-1,-1,-1,-1,-1,-1,-1,-1,-1,-1,-1,-1],"loss_changes":[1.645782E2,1.8238708E1,7.863486E1,1.2533127E1,8.855587E0,3.869269E1,2.4193832E1,6.2897034E0,1.2592613E1,5.006337E0,1.0126615E1,1.8590569E1,3.6383965E1,5.676941E0,1.7201569E1,0E0,0E0,0E0,0E0,0E0,0E0,0E0,0E0,0E0,0E0,0E0,0E0,0E0,0E0,0E0,0E0],"parents":[2147483647,0,0,1,1,2,2,3,3,4,4,5,5,6,6,7,7,8,8,9,9,10,10,11,11,12,12,13,13,14,14],"right_children":[2,4,6,8,10,12,14,16,18,20,22,24,26,28,30,-1,-1,-1,-1,-1,-1,-1,-1,-1,-1,-1,-1,-1,-1,-1,-1],"split_conditions":[1.302149E-2,1.188695E5,5.8814713E1,5.143423E1,8.052734E-3,7.1579675E6,5.6485203E-3,4.923328E-3,-2.9863387E-3,-3.322259E-3,5.745322E1,5.5280046E0,1E0,-8.8548695E-4,8.192938E0,-2.2013789E-2,-1.3342586E-2,5.539137E-2,-8.054227E-3,-2.6924275E-3,-1.759815E-2,-4.2904895E-3,1.0072298E-2,1.0869897E-2,1.7689839E-3,-2.993121E-3,2.567659E-3,4.5386396E-2,2.1872006E-2,5.6457105E-3,1.4484157E-2],"split_indices":[5,1,49,49,5,24,6,5,6,15,49,3,42,6,3,0,0,0,0,0,0,0,0,0,0,0,0,0,0,0,0],"split_type":[0,0,0,0,0,0,0,0,0,0,0,0,0,0,0,0,0,0,0,0,0,0,0,0,0,0,0,0,0,0,0],"sum_hessian":[2.2927377E4,3.567161E3,1.9360217E4,2.674483E3,8.926779E2,1.504952E4,4.3106973E3,1.6689814E3,1.00550146E3,2.3909311E2,6.535848E2,2.249417E3,1.2800103E4,1.3859839E2,4.1720986E3,2.4811769E2,1.4208638E3,6.8969293E0,9.9860455E2,9.132931E1,1.4776381E2,4.910811E2,1.6250371E2,1.071122E3,1.178295E3,8.220713E3,4.5793896E3,3.564898E1,1.0294941E2,3.5196807E3,6.524179E2],"tree_param":{"num_deleted":"0","num_feature":"51","num_nodes":"31","size_leaf_vector":"1"}},{"base_weights":[1.8593818E-3,-2.2505555E-1,2.375237E-2,-2.9302835E-1,-1.03971675E-1,-2.2357633E-2,1.05088405E-1,-3.3541632E-1,-1.11237295E-1,-5.6172848E-2,-4.3862826E-1,-1.14121675E-1,3.900661E-3,7.21537E-2,1.9736119E-1,-1.4970656E-2,-2.0896662E-2,-6.9112977E-4,-1.5892936E-2,-1.0685339E-2,3.4115629E-3,-2.6504418E-2,5.6549995E-3,7.6762983E-3,-6.82022E-3,-8.851291E-4,4.144661E-3,-2.5015315E-3,4.4953693E-3,1.2614141E-2,6.863057E-3],"categories":[],"categories_nodes":[],"categories_segments":[],"categories_sizes":[],"default_left":[0,0,0,0,0,0,0,0,0,0,0,0,0,0,0,0,0,0,0,0,0,0,0,0,0,0,0,0,0,0,0],"id":29,"left_children":[1,3,5,7,9,11,13,15,17,19,21,23,25,27,29,-1,-1,-1,-1,-1,-1,-1,-1,-1,-1,-1,-1,-1,-1,-1,-1],"loss_changes":[1.13820526E2,1.6562164E1,7.836839E1,9.907982E0,1.15946865E1,3.2135002E1,2.2960793E1,2.9827042E0,4.9376297E0,1.2493433E1,4.6335144E0,1.7716812E1,1.7697962E1,1.2093731E1,6.5274887E0,0E0,0E0,0E0,0E0,0E0,0E0,0E0,0E0,0E0,0E0,0E0,0E0,0E0,0E0,0E0,0E0],"parents":[2147483647,0,0,1,1,2,2,3,3,4,4,5,5,6,6,7,7,8,8,9,9,10,10,11,11,12,12,13,13,14,14],"right_children":[2,4,6,8,10,12,14,16,18,20,22,24,26,28,30,-1,-1,-1,-1,-1,-1,-1,-1,-1,-1,-1,-1,-1,-1,-1,-1],"split_conditions":[1.349E0,1E0,1E0,3.1081273E-3,1.3349336E0,2.2294247E0,8.290156E-3,7.148768E6,8.5E-1,1.126162E0,8.7E-1,-9.47202E4,1.1628571E-1,1.3642857E-2,1E0,-1.4970656E-2,-2.0896662E-2,-6.9112977E-4,-1.5892936E-2,-1.0685339E-2,3.4115629E-3,-2.6504418E-2,5.6549995E-3,7.6762983E-3,-6.82022E-3,-8.851291E-4,4.144661E-3,-2.5015315E-3,4.4953693E-3,1.2614141E-2,6.863057E-3],"split_indices":[0,42,42,6,3,3,15,24,37,4,37,24,45,45,43,0,0,0,0,0,0,0,0,0,0,0,0,0,0,0,0],"split_type":[0,0,0,0,0,0,0,0,0,0,0,0,0,0,0,0,0,0,0,0,0,0,0,0,0,0,0,0,0,0,0],"sum_hessian":[2.290937E4,2.0150138E3,2.0894355E4,1.289633E3,7.253808E2,1.3335236E4,7.559119E3,1.0451028E3,2.4453023E2,6.357455E2,8.963535E1,2.9661562E3,1.036908E4,5.572074E3,1.9870453E3,7.308512E2,3.142516E2,1.6690656E2,7.7623665E1,2.8020358E2,3.5554187E2,7.692303E1,1.2712322E1,2.2751248E2,2.7386438E3,8.142899E3,2.226181E3,7.0668835E2,4.8653857E3,1.0365814E3,9.504639E2],"tree_param":{"num_deleted":"0","num_feature":"51","num_nodes":"31","size_leaf_vector":"1"}},{"base_weights":[-3.1569907E-3,2.203013E-1,-9.7727254E-2,3.2333592E-1,3.8633395E-2,-3.038225E-2,-2.2733471E-1,4.2511576E-1,2.5042957E-1,1.541384E-1,-1.1043455E-1,2.1863488E-2,-1.7663491E-1,-1.962711E-1,-3.6256254E-1,-1.8177375E-2,2.177525E-2,1.0192177E-2,2.0819789E-2,8.53991E-3,-2.533533E-2,4.8293665E-2,-6.3174786E-3,-1.5018246E-2,2.078514E-3,-5.7940125E-3,-1.7474724E-2,-1.0079854E-2,3.157089E-2,-1.215122E-2,-2.210238E-2],"categories":[],"categories_nodes":[],"categories_segments":[],"categories_sizes":[],"default_left":[0,0,0,0,0,0,0,0,0,0,0,0,0,0,0,0,0,0,0,0,0,0,0,0,0,0,0,0,0,0,0],"id":30,"left_children":[1,3,5,7,9,11,13,15,17,19,21,23,25,27,29,-1,-1,-1,-1,-1,-1,-1,-1,-1,-1,-1,-1,-1,-1,-1,-1],"loss_changes":[4.805024E2,1.26546936E2,1.3944023E2,3.1907104E1,4.2168392E1,8.034634E1,2.2875732E1,1.4899811E1,1.9368958E1,1.5276844E1,1.8439388E1,4.921269E1,2.902478E1,1.9719452E1,9.577087E0,0E0,0E0,0E0,0E0,0E0,0E0,0E0,0E0,0E0,0E0,0E0,0E0,0E0,0E0,0E0,0E0],"parents":[2147483647,0,0,1,1,2,2,3,3,4,4,5,5,6,6,7,7,8,8,9,9,10,10,11,11,12,12,13,13,14,14],"right_children":[2,4,6,8,10,12,14,16,18,20,22,24,26,28,30,-1,-1,-1,-1,-1,-1,-1,-1,-1,-1,-1,-1,-1,-1,-1,-1],"split_conditions":[2.11935E-2,1.188695E5,1E0,5.53402E4,1E0,1.0397853E-2,5.048214E5,-9.47202E4,7.1E-1,1.2800976E-2,1.0088885E0,3.3391432E6,5.8035923E1,2.1997912E-2,-1.02471365E-2,-1.8177375E-2,2.177525E-2,1.0192177E-2,2.0819789E-2,8.53991E-3,-2.533533E-2,4.8293665E-2,-6.3174786E-3,-1.5018246E-2,2.078514E-3,-5.7940125E-3,-1.7474724E-2,-1.0079854E-2,3.157089E-2,-1.215122E-2,-2.210238E-2],"split_indices":[5,1,42,1,42,14,1,24,37,10,3,24,49,14,17,0,0,0,0,0,0,0,0,0,0,0,0,0,0,0,0],"split_type":[0,0,0,0,0,0,0,0,0,0,0,0,0,0,0,0,0,0,0,0,0,0,0,0,0,0,0,0,0,0,0],"sum_hessian":[2.2735574E4,6.7603477E3,1.5975228E4,4.313262E3,2.4470854E3,1.0513546E4,5.461682E3,1.7981497E3,2.5151123E3,1.3787385E3,1.0683469E3,7.746956E3,2.7665894E3,4.4434214E3,1.01826086E3,2.2937428E1,1.7752123E3,1.9656038E3,5.495086E2,1.3455587E3,3.317979E1,1.4697383E1,1.0536495E3,4.4566046E2,7.301296E3,2.0483347E3,7.1825464E2,4.415763E3,2.7657959E1,4.0828925E2,6.0997156E2],"tree_param":{"num_deleted":"0","num_feature":"51","num_nodes":"31","size_leaf_vector":"1"}},{"base_weights":[-8.176669E-4,-1.5904826E-1,4.072936E-2,-2.2700182E-1,-6.520073E-2,1.1569236E-3,9.159408E-2,-1.2494034E-1,-2.5666463E-1,6.9708526E-2,-1.1264731E-1,2.9334322E-2,-1.0995829E-1,8.148809E-2,3.6653358E-1,-8.660153E-3,8.20942E-3,-1.5241049E-2,-6.7872927E-3,-7.716292E-3,6.8432703E-3,-2.4286846E-3,-1.3089232E-2,3.726696E-3,-2.230751E-3,-1.3671578E-3,-8.531587E-3,1.0433907E-2,3.408209E-3,2.7299467E-2,5.0733676E-3],"categories":[],"categories_nodes":[],"categories_segments":[],"categories_sizes":[],"default_left":[0,0,0,0,0,0,0,0,0,0,0,0,0,0,0,0,0,0,0,0,0,0,0,0,0,0,0,0,0,0,0],"id":31,"left_children":[1,3,5,7,9,11,13,15,17,19,21,23,25,27,29,-1,-1,-1,-1,-1,-1,-1,-1,-1,-1,-1,-1,-1,-1,-1,-1],"loss_changes":[1.5027148E2,3.0301361E1,3.6441677E1,8.314194E0,1.2796413E1,3.1887577E1,2.198172E1,8.718596E0,1.2391373E1,7.8514724E0,1.4115099E1,2.7158936E1,1.0322441E1,1.29371605E1,1.3291172E1,0E0,0E0,0E0,0E0,0E0,0E0,0E0,0E0,0E0,0E0,0E0,0E0,0E0,0E0,0E0,0E0],"parents":[2147483647,0,0,1,1,2,2,3,3,4,4,5,5,6,6,7,7,8,8,9,9,10,10,11,11,12,12,13,13,14,14],"right_children":[2,4,6,8,10,12,14,16,18,20,22,24,26,28,30,-1,-1,-1,-1,-1,-1,-1,-1,-1,-1,-1,-1,-1,-1,-1,-1],"split_conditions":[1.6357142E-2,9.7421E4,8.224962E-3,7.1307335E6,7.1277785E6,9.330081E6,1.9870909E-1,7.122057E6,1.8320004E0,3.608587E-3,6.3E-1,1E0,-5.118362E-3,-1.4099217E-2,1E0,-8.660153E-3,8.20942E-3,-1.5241049E-2,-6.7872927E-3,-7.716292E-3,6.8432703E-3,-2.4286846E-3,-1.3089232E-2,3.726696E-3,-2.230751E-3,-1.3671578E-3,-8.531587E-3,1.0433907E-2,3.408209E-3,2.7299467E-2,5.0733676E-3],"split_indices":[45,1,14,24,24,24,7,24,50,14,37,41,13,10,41,0,0,0,0,0,0,0,0,0,0,0,0,0,0,0,0],"split_type":[0,0,0,0,0,0,0,0,0,0,0,0,0,0,0,0,0,0,0,0,0,0,0,0,0,0,0,0,0,0,0],"sum_hessian":[2.2856434E4,4.7527812E3,1.8103652E4,2.7558755E3,1.9969058E3,1.0182643E4,7.92101E3,6.2176587E2,2.1341096E3,5.194464E2,1.4774592E3,8.1233906E3,2.0592522E3,7.6414287E3,2.7958075E2,5.3316797E2,8.8597916E1,1.5251803E3,6.089294E2,1.1949959E2,3.9994684E2,1.0343843E3,4.4307504E2,5.0417476E3,3.0816436E3,8.725743E2,1.1866779E3,7.231905E2,6.9182383E3,1.6608063E2,1.1350011E2],"tree_param":{"num_deleted":"0","num_feature":"51","num_nodes":"31","size_leaf_vector":"1"}},{"base_weights":[7.6775334E-4,-1.5485822E-1,3.057387E-2,-1.9462672E-1,-1.3396297E-2,-1.5293838E-2,1.1104456E-1,-1.4401849E-1,-2.7052966E-1,-5.4508314E-2,1.8844204E-1,8.3289E-2,-3.6999043E-2,2.191567E-1,8.2192145E-2,-4.7319094E-4,-9.609319E-3,-2.2082023E-2,-1.1764138E-2,-1.2090082E-2,-1.535252E-4,1.6415955E-2,-1.9569488E-2,1.9497424E-3,1.7647117E-2,-6.871538E-3,-6.0463947E-4,9.58172E-3,3.296364E-2,-1.2786892E-2,4.9240408E-3],"categories":[],"categories_nodes":[],"categories_segments":[],"categories_sizes":[],"default_left":[0,0,0,0,0,0,0,0,0,0,0,0,0,0,0,0,0,0,0,0,0,0,0,0,0,0,0,0,0,0,0],"id":32,"left_children":[1,3,5,7,9,11,13,15,17,19,21,23,25,27,29,-1,-1,-1,-1,-1,-1,-1,-1,-1,-1,-1,-1,-1,-1,-1,-1],"loss_changes":[1.0615611E2,2.0691978E1,7.089398E1,1.0990517E1,6.71739E0,2.6182076E1,2.1733528E1,1.1177116E1,6.816551E0,6.4759865E0,1.1240063E1,2.6358162E1,2.5081131E1,1.7659798E1,3.0331856E1,0E0,0E0,0E0,0E0,0E0,0E0,0E0,0E0,0E0,0E0,0E0,0E0,0E0,0E0,0E0,0E0],"parents":[2147483647,0,0,1,1,2,2,3,3,4,4,5,5,6,6,7,7,8,8,9,9,10,10,11,11,12,12,13,13,14,14],"right_children":[2,4,6,8,10,12,14,16,18,20,22,24,26,28,30,-1,-1,-1,-1,-1,-1,-1,-1,-1,-1,-1,-1,-1,-1,-1,-1],"split_conditions":[1.663E0,1.74247E5,1E0,1E0,9.462091E-3,3.8944202E1,4.0464798E1,4.2251328E1,1.113E0,1.203E0,1.5613967E0,-1.3974026E-2,-1.5750574E-2,-5.425936E-4,3.911278E1,-4.7319094E-4,-9.609319E-3,-2.2082023E-2,-1.1764138E-2,-1.2090082E-2,-1.535252E-4,1.6415955E-2,-1.9569488E-2,1.9497424E-3,1.7647117E-2,-6.871538E-3,-6.0463947E-4,9.58172E-3,3.296364E-2,-1.2786892E-2,4.9240408E-3],"split_indices":[0,1,42,41,6,49,49,49,0,0,4,17,6,17,2,0,0,0,0,0,0,0,0,0,0,0,0,0,0,0,0],"split_type":[0,0,0,0,0,0,0,0,0,0,0,0,0,0,0,0,0,0,0,0,0,0,0,0,0,0,0,0,0,0,0],"sum_hessian":[2.2883326E4,3.677562E3,1.9205764E4,2.870279E3,8.0728314E2,1.2233543E4,6.9722207E3,1.7238204E3,1.1464586E3,6.7128125E2,1.3600189E2,2.2069526E3,1.0026591E4,1.4673513E3,5.5048696E3,4.547355E2,1.2690848E3,1.9385135E2,9.5260724E2,1.4383911E2,5.2744214E2,1.0991908E2,2.6082813E1,1.8965618E3,3.1039087E2,1.9915139E3,8.035077E3,1.382343E3,8.500825E1,2.5246423E2,5.2524053E3],"tree_param":{"num_deleted":"0","num_feature":"51","num_nodes":"31","size_leaf_vector":"1"}},{"base_weights":[1.2797542E-3,2.3061916E-1,-8.24235E-2,3.9075637E-1,1.2566134E-1,-1.751119E-2,-2.1006998E-1,3.2589075E-1,4.7665977E-1,3.106777E-1,8.762544E-2,2.8720696E-2,-1.7500809E-1,-1.4958648E-1,-2.9507962E-1,2.1969564E-2,1.0873246E-2,9.685874E-3,2.5764583E-2,2.3870347E-2,8.958718E-3,8.534508E-4,9.69864E-3,-2.1477994E-3,4.525537E-3,-4.9989335E-3,-1.4894666E-2,9.609263E-5,-8.476938E-3,-1.0052408E-2,-1.8148579E-2],"categories":[],"categories_nodes":[],"categories_segments":[],"categories_sizes":[],"default_left":[0,0,0,0,0,0,0,0,0,0,0,0,0,0,0,0,0,0,0,0,0,0,0,0,0,0,0,0,0,0,0],"id":33,"left_children":[1,3,5,7,9,11,13,15,17,19,21,23,25,27,29,-1,-1,-1,-1,-1,-1,-1,-1,-1,-1,-1,-1,-1,-1,-1,-1],"loss_changes":[4.376909E2,1.024198E2,1.3840323E2,1.3292053E1,2.5899853E1,8.064007E1,2.8908218E1,1.6864975E1,1.1225601E1,1.3680656E1,2.2937792E1,3.792402E1,2.3141777E1,9.95211E0,1.4864395E1,0E0,0E0,0E0,0E0,0E0,0E0,0E0,0E0,0E0,0E0,0E0,0E0,0E0,0E0,0E0,0E0],"parents":[2147483647,0,0,1,1,2,2,3,3,4,4,5,5,6,6,7,7,8,8,9,9,10,10,11,11,12,12,13,13,14,14],"right_children":[2,4,6,8,10,12,14,16,18,20,22,24,26,28,30,-1,-1,-1,-1,-1,-1,-1,-1,-1,-1,-1,-1,-1,-1,-1,-1],"split_conditions":[1.9010417E-2,6.95551E4,1E0,1E0,7.826907E-3,3.308249E5,2.855907E5,1.343749E0,-8.937438E-3,1.126162E0,1E0,1E0,5.683852E1,8.00201E4,4E1,2.1969564E-2,1.0873246E-2,9.685874E-3,2.5764583E-2,2.3870347E-2,8.958718E-3,8.534508E-4,9.69864E-3,-2.1477994E-3,4.525537E-3,-4.9989335E-3,-1.4894666E-2,9.609263E-5,-8.476938E-3,-1.0052408E-2,-1.8148579E-2],"split_indices":[5,1,42,41,5,1,1,4,13,4,41,41,49,1,25,0,0,0,0,0,0,0,0,0,0,0,0,0,0,0,0],"split_type":[0,0,0,0,0,0,0,0,0,0,0,0,0,0,0,0,0,0,0,0,0,0,0,0,0,0,0,0,0,0,0],"sum_hessian":[2.2798621E4,6.0955645E3,1.6703055E4,2.4123098E3,3.683255E3,1.10731455E4,5.62991E3,1.3771887E3,1.0351211E3,6.268634E2,3.0563916E3,8.560964E3,2.5121812E3,3.2910913E3,2.3388188E3,6.7135724E2,7.058315E2,1.2507539E2,9.1004565E2,2.752507E2,3.516127E2,1.8380759E3,1.2183156E3,3.9635437E3,4.5974204E3,1.5609396E3,9.512416E2,3.8307825E2,2.9080132E3,9.82291E2,1.3565277E3],"tree_param":{"num_deleted":"0","num_feature":"51","num_nodes":"31","size_leaf_vector":"1"}},{"base_weights":[-3.1567856E-3,-1.8249638E-1,3.1114552E-2,-1.8609533E-1,6.1562445E-2,-3.3757E-2,8.874176E-2,-2.3902132E-1,-9.928342E-2,4.7724154E-2,-9.0084694E-2,2.2028954E-1,6.122789E-2,-1.40934065E-2,-8.316535E-3,4.2729467E-4,-8.011768E-3,9.127035E-3,8.803387E-4,-6.565516E-3,9.762387E-4,9.347307E-3,3.713869E-2,4.1791933E-4,8.5737305E-3],"categories":[],"categories_nodes":[],"categories_segments":[],"categories_sizes":[],"default_left":[0,0,0,0,0,0,0,0,0,0,0,0,0,0,0,0,0,0,0,0,0,0,0,0,0],"id":34,"left_children":[1,3,5,7,-1,9,11,13,15,17,19,21,23,-1,-1,-1,-1,-1,-1,-1,-1,-1,-1,-1,-1],"loss_changes":[1.4092636E2,1.8946274E1,7.1967995E1,1.683944E1,0E0,4.157135E1,3.6885033E1,7.0524445E0,9.148904E0,1.5030004E1,2.4201347E1,3.0575996E1,4.9149773E1,0E0,0E0,0E0,0E0,0E0,0E0,0E0,0E0,0E0,0E0,0E0,0E0],"parents":[2147483647,0,0,1,1,2,2,3,3,5,5,6,6,7,7,8,8,9,9,10,10,11,11,12,12],"right_children":[2,4,6,8,-1,10,12,14,16,18,20,22,24,-1,-1,-1,-1,-1,-1,-1,-1,-1,-1,-1,-1],"split_conditions":[1.3071429E-2,8.0806895E6,4.853492E1,9.1542E4,6.1562445E-2,-1.0132502E-2,6.3857116E-4,5.143423E1,1.316E0,-1.1630411E-2,8.923627E-3,5.6573383E1,6.2660896E1,-1.40934065E-2,-8.316535E-3,4.2729467E-4,-8.011768E-3,9.127035E-3,8.803387E-4,-6.565516E-3,9.762387E-4,9.347307E-3,3.713869E-2,4.1791933E-4,8.5737305E-3],"split_indices":[45,24,49,1,0,12,6,49,0,10,14,49,49,0,0,0,0,0,0,0,0,0,0,0,0],"split_type":[0,0,0,0,0,0,0,0,0,0,0,0,0,0,0,0,0,0,0,0,0,0,0,0,0],"sum_hessian":[2.292707E4,3.6776824E3,1.9249389E4,3.66921E3,8.472291E0,9.055702E3,1.0193686E4,2.278401E3,1.3908093E3,3.701471E3,5.3542314E3,1.7620522E3,8.431633E3,1.4316503E3,8.467506E2,5.025731E2,8.882362E2,6.749745E2,3.0264963E3,3.8906914E3,1.4635403E3,1.6576252E3,1.0442698E2,5.6994854E3,2.732148E3],"tree_param":{"num_deleted":"0","num_feature":"51","num_nodes":"25","size_leaf_vector":"1"}},{"base_weights":[1.3371485E-3,-2.1029894E-1,2.2297738E-2,-2.788311E-1,-8.8538855E-2,-1.8731726E-2,9.4447896E-2,-3.031493E-1,4.4974424E-2,7.7472544E-1,-1.10381104E-1,-1.253557E-1,-1.6699622E-4,-2.4925351E-2,1.2175688E-1,-1.878565E-2,-1.21146655E-2,9.792029E-3,-2.955077E-2,4.7025383E-2,-6.281766E-4,-1.3284789E-2,-1.409862E-3,2.0833312E-4,-8.796373E-3,-4.4929382E-4,8.631715E-3,3.5391897E-2,-1.8712379E-3,4.735123E-3,1.0179754E-2],"categories":[],"categories_nodes":[],"categories_segments":[],"categories_sizes":[],"default_left":[0,0,0,0,0,0,0,0,0,0,0,0,0,0,0,0,0,0,0,0,0,0,0,0,0,0,0,0,0,0,0],"id":35,"left_children":[1,3,5,7,9,11,13,15,17,19,21,23,25,27,29,-1,-1,-1,-1,-1,-1,-1,-1,-1,-1,-1,-1,-1,-1,-1,-1],"loss_changes":[1.014627E2,1.7174683E1,6.160895E1,1.0395126E1,1.4109905E1,2.6262602E1,2.4598099E1,5.324768E0,9.035874E0,2.423706E0,9.263238E0,1.288829E1,1.7223536E1,1.2899293E1,1.3575462E1,0E0,0E0,0E0,0E0,0E0,0E0,0E0,0E0,0E0,0E0,0E0,0E0,0E0,0E0,0E0,0E0],"parents":[2147483647,0,0,1,1,2,2,3,3,4,4,5,5,6,6,7,7,8,8,9,9,10,10,11,11,12,12,13,13,14,14],"right_children":[2,4,6,8,10,12,14,16,18,20,22,24,26,28,30,-1,-1,-1,-1,-1,-1,-1,-1,-1,-1,-1,-1,-1,-1,-1,-1],"split_conditions":[1.355E0,1E0,1E0,2.1398235E-2,-9.082016E-3,1.9850729E0,4.5272135E-3,1.143E0,3.5817018E-3,3.7952333E-3,5.9639E4,1.5613967E0,2.3716275E-2,1.3712126E0,7.3333336E1,-1.878565E-2,-1.21146655E-2,9.792029E-3,-2.955077E-2,4.7025383E-2,-6.281766E-4,-1.3284789E-2,-1.409862E-3,2.0833312E-4,-8.796373E-3,-4.4929382E-4,8.631715E-3,3.5391897E-2,-1.8712379E-3,4.735123E-3,1.0179754E-2],"split_indices":[0,42,42,17,7,4,14,0,8,8,1,4,11,4,25,0,0,0,0,0,0,0,0,0,0,0,0,0,0,0,0],"split_type":[0,0,0,0,0,0,0,0,0,0,0,0,0,0,0,0,0,0,0,0,0,0,0,0,0,0,0,0,0,0,0],"sum_hessian":[2.2870418E4,2.0601675E3,2.0810252E4,1.3173901E3,7.4277734E2,1.3266667E4,7.5435845E3,1.225423E3,9.196709E1,1.7479298E1,7.2529803E2,1.9665137E3,1.1300153E4,1.4044647E3,6.1391196E3,5.565857E2,6.6883734E2,7.489335E1,1.7073734E1,1.4278093E1,3.2012048E0,2.5020905E2,4.75089E2,5.5246924E2,1.4140444E3,1.0752356E4,5.477964E2,2.2622412E1,1.3818423E3,4.6154736E3,1.5236462E3],"tree_param":{"num_deleted":"0","num_feature":"51","num_nodes":"31","size_leaf_vector":"1"}},{"base_weights":[-6.4762053E-3,2.4766585E-1,-8.0724105E-2,3.7529743E-1,1.6633993E-1,-2.2378303E-2,-1.6411221E-1,4.062089E-1,-3.7413534E-2,1.9420221E-1,-8.6746365E-2,-5.0322928E-2,9.516622E-2,-1.4365092E-1,-4.172376E-1,1.6892577E-2,2.6861746E-2,-1.8060472E-2,8.648555E-3,8.980047E-3,2.9759837E-2,2.795072E-3,-1.6352331E-2,-1.454804E-3,-1.0054312E-2,6.5559405E-3,-1.863215E-2,-4.22538E-3,-1.1386867E-2,-1.4527636E-2,-2.5704468E-2],"categories":[],"categories_nodes":[],"categories_segments":[],"categories_sizes":[],"default_left":[0,0,0,0,0,0,0,0,0,0,0,0,0,0,0,0,0,0,0,0,0,0,0,0,0,0,0,0,0,0,0],"id":36,"left_children":[1,3,5,7,9,11,13,15,17,19,21,23,25,27,29,-1,-1,-1,-1,-1,-1,-1,-1,-1,-1,-1,-1,-1,-1,-1,-1],"loss_changes":[4.298024E2,5.3392822E1,8.5760704E1,2.5575531E1,2.2210876E1,3.4074837E1,3.752278E1,1.6513885E1,9.635121E0,1.6495445E1,1.0741392E1,2.6814157E1,3.3561913E1,3.337648E1,6.502899E0,0E0,0E0,0E0,0E0,0E0,0E0,0E0,0E0,0E0,0E0,0E0,0E0,0E0,0E0,0E0,0E0],"parents":[2147483647,0,0,1,1,2,2,3,3,4,4,5,5,6,6,7,7,8,8,9,9,10,10,11,11,12,12,13,13,14,14],"right_children":[2,4,6,8,10,12,14,16,18,20,22,24,26,28,30,-1,-1,-1,-1,-1,-1,-1,-1,-1,-1,-1,-1,-1,-1,-1,-1],"split_conditions":[1.5972061E-2,7.826907E-3,8.310498E-3,1.183432E-2,1.2271869E-2,9.344099E6,1E0,1.3295304E0,5.3E-1,8.105504E-3,7.36006E6,6.2260487E1,1.4148682E2,9.819652E-2,-4.3550392E1,1.6892577E-2,2.6861746E-2,-1.8060472E-2,8.648555E-3,8.980047E-3,2.9759837E-2,2.795072E-3,-1.6352331E-2,-1.454804E-3,-1.0054312E-2,6.5559405E-3,-1.863215E-2,-4.22538E-3,-1.1386867E-2,-1.4527636E-2,-2.5704468E-2],"split_indices":[5,5,14,13,12,24,18,4,37,14,24,2,28,5,28,0,0,0,0,0,0,0,0,0,0,0,0,0,0,0,0],"split_type":[0,0,0,0,0,0,0,0,0,0,0,0,0,0,0,0,0,0,0,0,0,0,0,0,0,0,0,0,0,0,0],"sum_hessian":[2.277555E4,5.1489497E3,1.7626602E4,2.0025559E3,3.1463938E3,1.0371228E4,7.2553735E3,1.8630331E3,1.3952272E2,2.8345688E3,3.1182498E2,8.37965E3,1.9915769E3,6.7142017E3,5.411721E2,1.2266554E3,6.363777E2,5.4668056E1,8.485467E1,2.736378E3,9.8190865E1,1.96152E2,1.15673004E2,7.3464883E3,1.0331621E3,1.8501099E3,1.4146696E2,3.9429084E3,2.771293E3,2.3620673E2,3.049654E2],"tree_param":{"num_deleted":"0","num_feature":"51","num_nodes":"31","size_leaf_vector":"1"}},{"base_weights":[-2.329162E-3,-1.6506921E-1,3.1429946E-2,-2.7077714E-1,-1.1116328E-1,8.692107E-3,1.9424212E-1,-3.5269484E-1,-2.1773916E-1,-1.70002E-1,-1.8687887E-2,4.489767E-2,-4.8538595E-2,2.3697774E-1,4.6874594E-2,-1.0340585E-2,-2.1142483E-2,3.8053524E-2,-1.1275343E-2,-1.4589134E-3,-1.0969219E-2,-7.9186605E-3,3.4599595E-3,9.349747E-3,1.3799135E-3,8.205053E-3,-3.2029473E-3,1.5442012E-3,1.351243E-2,2.2968546E-2,-1.8032019E-3],"categories":[],"categories_nodes":[],"categories_segments":[],"categories_sizes":[],"default_left":[0,0,0,0,0,0,0,0,0,0,0,0,0,0,0,0,0,0,0,0,0,0,0,0,0,0,0,0,0,0,0],"id":37,"left_children":[1,3,5,7,9,11,13,15,17,19,21,23,25,27,29,-1,-1,-1,-1,-1,-1,-1,-1,-1,-1,-1,-1,-1,-1,-1,-1],"loss_changes":[1.2591251E2,2.2406532E1,7.026582E1,5.6977386E0,1.4194668E1,3.451466E1,1.4637291E1,5.2417984E0,6.3252754E0,1.108263E1,1.24811535E1,2.5074646E1,2.1311989E1,1.2353401E1,1.7947784E1,0E0,0E0,0E0,0E0,0E0,0E0,0E0,0E0,0E0,0E0,0E0,0E0,0E0,0E0,0E0,0E0],"parents":[2147483647,0,0,1,1,2,2,3,3,4,4,5,5,6,6,7,7,8,8,9,9,10,10,11,11,12,12,13,13,14,14],"right_children":[2,4,6,8,10,12,14,16,18,20,22,24,26,28,30,-1,-1,-1,-1,-1,-1,-1,-1,-1,-1,-1,-1,-1,-1,-1,-1],"split_conditions":[1.4392321E-2,5.53402E4,6.3909725E1,4.5827183E1,5.1924618E1,1E0,9.243079E6,-1.4835725E0,1.008E0,-7.633588E-3,8.76405E-3,-1.7069701E-2,3.266693E6,2.0651747E-2,3.4353286E-2,-1.0340585E-2,-2.1142483E-2,3.8053524E-2,-1.1275343E-2,-1.4589134E-3,-1.0969219E-2,-7.9186605E-3,3.4599595E-3,9.349747E-3,1.3799135E-3,8.205053E-3,-3.2029473E-3,1.5442012E-3,1.351243E-2,2.2968546E-2,-1.8032019E-3],"split_indices":[5,1,49,49,49,41,24,48,0,15,5,11,24,5,7,0,0,0,0,0,0,0,0,0,0,0,0,0,0,0,0],"split_type":[0,0,0,0,0,0,0,0,0,0,0,0,0,0,0,0,0,0,0,0,0,0,0,0,0,0,0,0,0,0,0],"sum_hessian":[2.2916414E4,3.9364363E3,1.8979977E4,1.3280825E3,2.6083538E3,1.665504E4,2.3249375E3,5.1971985E2,8.083627E2,1.5935791E3,1.01477466E3,1.02015205E4,6.45352E3,1.8018148E3,5.231226E2,1.700526E2,3.4966727E2,5.600981E0,8.0276166E2,4.1414694E2,1.1794323E3,3.915901E2,6.231846E2,1.1061116E3,9.095408E3,4.3834283E2,6.015177E3,2.5071411E2,1.5511007E3,8.68139E1,4.3630875E2],"tree_param":{"num_deleted":"0","num_feature":"51","num_nodes":"31","size_leaf_vector":"1"}},{"base_weights":[-3.294201E-3,-1.2436642E-1,3.25559E-2,-2.1323931E-1,-6.818895E-2,-9.626028E-3,8.245047E-2,-2.66943E-1,-1.5087572E-1,-1.489435E-1,-3.42054E-2,2.7593806E-1,-1.6693821E-2,8.880413E-2,-1.9401631E-1,-1.1656728E-2,-2.2921665E-2,3.3675548E-2,-7.963456E-3,-2.39868E-3,-1.2142728E-2,-1.1161062E-2,-9.0101466E-4,3.4961075E-2,9.861664E-3,-1.605882E-3,3.4278247E-3,4.142418E-3,1.7427221E-2,-2.2160064E-2,-2.5134048E-4],"categories":[],"categories_nodes":[],"categories_segments":[],"categories_sizes":[],"default_left":[0,0,0,0,0,0,0,0,0,0,0,0,0,0,0,0,0,0,0,0,0,0,0,0,0,0,0,0,0,0,0],"id":38,"left_children":[1,3,5,7,9,11,13,15,17,19,21,23,25,27,29,-1,-1,-1,-1,-1,-1,-1,-1,-1,-1,-1,-1,-1,-1,-1,-1],"loss_changes":[9.9859344E1,2.6227074E1,3.7359783E1,6.7758484E0,8.836764E0,1.9420073E1,1.4301739E1,6.964096E0,6.6389503E0,9.034042E0,6.9370966E0,7.6042404E0,1.234671E1,1.2269428E1,8.615976E0,0E0,0E0,0E0,0E0,0E0,0E0,0E0,0E0,0E0,0E0,0E0,0E0,0E0,0E0,0E0,0E0],"parents":[2147483647,0,0,1,1,2,2,3,3,4,4,5,5,6,6,7,7,8,8,9,9,10,10,11,11,12,12,13,13,14,14],"right_children":[2,4,6,8,10,12,14,16,18,20,22,24,26,28,30,-1,-1,-1,-1,-1,-1,-1,-1,-1,-1,-1,-1,-1,-1,-1,-1],"split_conditions":[1.996E0,7.50725E4,2.080902E5,1.349E0,-1.484895E-2,-4.489729E4,2.4661256E-2,1.336582E0,4.712971E-3,-1.0667726E-2,1.12E0,-3.562488E-2,8.925918E0,1.6312908E1,6.373E0,-1.1656728E-2,-2.2921665E-2,3.3675548E-2,-7.963456E-3,-2.39868E-3,-1.2142728E-2,-1.1161062E-2,-9.0101466E-4,3.4961075E-2,9.861664E-3,-1.605882E-3,3.4278247E-3,4.142418E-3,1.7427221E-2,-2.2160064E-2,-2.5134048E-4],"split_indices":[0,1,1,0,17,24,14,4,5,6,0,17,4,4,0,0,0,0,0,0,0,0,0,0,0,0,0,0,0,0,0],"split_type":[0,0,0,0,0,0,0,0,0,0,0,0,0,0,0,0,0,0,0,0,0,0,0,0,0,0,0,0,0,0,0],"sum_hessian":[2.3004742E4,5.2550444E3,1.7749697E4,2.0341764E3,3.2208682E3,9.618674E3,8.131023E3,1.0912115E3,9.4296484E2,9.5296655E2,2.2679016E3,2.313963E2,9.387277E3,7.94902E3,1.820026E2,9.293484E2,1.6186316E2,8.70526E0,9.342596E2,4.5995248E2,4.9301404E2,1.778705E2,2.090031E3,3.504361E1,1.9635269E2,7.949624E3,1.4376536E3,7.7721265E3,1.768936E2,7.791957E1,1.0408303E2],"tree_param":{"num_deleted":"0","num_feature":"51","num_nodes":"31","size_leaf_vector":"1"}},{"base_weights":[-1.2856303E-3,2.0166235E-1,-8.0290385E-2,2.831164E-1,1.5486454E-2,-1.9741377E-2,-2.0069154E-1,2.1207057E-1,3.7848482E-1,1.0979507E-1,-9.510071E-2,2.1645727E-2,-1.6427079E-1,-1.4204027E-1,-2.927445E-1,1.6383575E-2,5.0101783E-3,9.64236E-3,2.0525265E-2,-5.220368E-3,6.7188195E-3,3.387845E-2,-5.733294E-3,-9.208566E-3,2.9499964E-3,-6.669566E-3,-1.798459E-2,-9.187381E-3,-5.8841717E-4,-1.6759044E-2,-5.9138048E-3],"categories":[],"categories_nodes":[],"categories_segments":[],"categories_sizes":[],"default_left":[0,0,0,0,0,0,0,0,0,0,0,0,0,0,0,0,0,0,0,0,0,0,0,0,0,0,0,0,0,0,0],"id":39,"left_children":[1,3,5,7,9,11,13,15,17,19,21,23,25,27,29,-1,-1,-1,-1,-1,-1,-1,-1,-1,-1,-1,-1,-1,-1,-1,-1],"loss_changes":[3.650815E2,9.674878E1,1.19476715E2,2.9991241E1,2.0273241E1,6.524103E1,2.9566788E1,3.2888527E1,1.117627E1,5.537817E0,1.3604632E1,6.5200745E1,1.4603615E1,1.8208542E1,1.5755203E1,0E0,0E0,0E0,0E0,0E0,0E0,0E0,0E0,0E0,0E0,0E0,0E0,0E0,0E0,0E0,0E0],"parents":[2147483647,0,0,1,1,2,2,3,3,4,4,5,5,6,6,7,7,8,8,9,9,10,10,11,11,12,12,13,13,14,14],"right_children":[2,4,6,8,10,12,14,16,18,20,22,24,26,28,30,-1,-1,-1,-1,-1,-1,-1,-1,-1,-1,-1,-1,-1,-1,-1,-1],"split_conditions":[1.9214286E-2,1.301334E5,1E0,1E0,1E0,3.393522E5,8.396259E-3,1.3970132E0,7.116975E6,-1.2786658E-2,1.0251086E0,6.9238525E6,1E0,9.283469E6,1.5068047E-2,1.6383575E-2,5.0101783E-3,9.64236E-3,2.0525265E-2,-5.220368E-3,6.7188195E-3,3.387845E-2,-5.733294E-3,-9.208566E-3,2.9499964E-3,-6.669566E-3,-1.798459E-2,-9.187381E-3,-5.8841717E-4,-1.6759044E-2,-5.9138048E-3],"split_indices":[45,1,42,41,42,1,14,50,24,11,50,24,22,24,14,0,0,0,0,0,0,0,0,0,0,0,0,0,0,0,0],"split_type":[0,0,0,0,0,0,0,0,0,0,0,0,0,0,0,0,0,0,0,0,0,0,0,0,0,0,0,0,0,0,0],"sum_hessian":[2.2767406E4,6.379121E3,1.6388285E4,4.437253E3,1.9418685E3,1.0905261E4,5.483025E3,2.5447415E3,1.8925112E3,1.0480769E3,8.937917E2,8.478288E3,2.4269724E3,3.350687E3,2.132338E3,1.2505358E3,1.2942057E3,2.794473E2,1.6130638E3,1.07558754E2,9.405181E2,2.1242668E1,8.72549E2,1.3017693E3,7.1765186E3,2.0972566E3,3.297157E2,2.537788E3,8.12899E2,1.7144153E3,4.1792264E2],"tree_param":{"num_deleted":"0","num_feature":"51","num_nodes":"31","size_leaf_vector":"1"}},{"base_weights":[1.1489926E-3,-1.8302341E-1,3.4636125E-2,-2.2004806E-1,-2.5736336E-2,-2.7275331E-2,8.953888E-2,-1.3123336E-1,-2.542811E-1,6.920507E-2,-1.945022E-1,3.976045E-2,-8.690902E-2,2.3756436E-1,6.7132354E-2,-8.768938E-3,5.627992E-3,-1.1887864E-2,-2.6545009E-2,-9.474253E-4,1.8382186E-2,1.7932972E-2,-1.1567342E-2,4.4927946E-3,-2.1862264E-3,-7.7080475E-3,-2.26098E-3,1.9892326E-2,7.54521E-3,3.200882E-4,6.6122734E-3],"categories":[],"categories_nodes":[],"categories_segments":[],"categories_sizes":[],"default_left":[0,0,0,0,0,0,0,0,0,0,0,0,0,0,0,0,0,0,0,0,0,0,0,0,0,0,0,0,0,0,0],"id":40,"left_children":[1,3,5,7,9,11,13,15,17,19,21,23,25,27,29,-1,-1,-1,-1,-1,-1,-1,-1,-1,-1,-1,-1,-1,-1,-1,-1],"loss_changes":[1.4117297E2,2.0502808E1,6.583798E1,8.633316E0,1.0783416E1,3.639736E1,3.403205E1,8.576952E0,9.273224E0,1.1343367E1,5.020443E0,1.7931694E1,1.3502045E1,1.8680496E1,3.526137E1,0E0,0E0,0E0,0E0,0E0,0E0,0E0,0E0,0E0,0E0,0E0,0E0,0E0,0E0,0E0,0E0],"parents":[2147483647,0,0,1,1,2,2,3,3,4,4,5,5,6,6,7,7,8,8,9,9,10,10,11,11,12,12,13,13,14,14],"right_children":[2,4,6,8,10,12,14,16,18,20,22,24,26,28,30,-1,-1,-1,-1,-1,-1,-1,-1,-1,-1,-1,-1,-1,-1,-1,-1],"split_conditions":[1.302149E-2,1.408471E5,4.853492E1,7.1307335E6,7.4E-1,-6.5146578E-3,4.8945805E1,9.571428E-3,5.7157488E-3,5.745322E1,-2.3153253E-2,-1.5750574E-2,4.07461E1,2.2776478E-3,5.8814713E1,-8.768938E-3,5.627992E-3,-1.1887864E-2,-2.6545009E-2,-9.474253E-4,1.8382186E-2,1.7932972E-2,-1.1567342E-2,4.4927946E-3,-2.1862264E-3,-7.7080475E-3,-2.26098E-3,1.9892326E-2,7.54521E-3,3.200882E-4,6.6122734E-3],"split_indices":[5,1,49,24,37,15,2,45,14,49,12,6,49,7,49,0,0,0,0,0,0,0,0,0,0,0,0,0,0,0,0],"split_type":[0,0,0,0,0,0,0,0,0,0,0,0,0,0,0,0,0,0,0,0,0,0,0,0,0,0,0,0,0,0,0],"sum_hessian":[2.2888145E4,3.520676E3,1.9367467E4,2.8495146E3,6.711615E2,9.102959E3,1.0264509E4,7.941068E2,2.0554077E3,4.2990366E2,2.4125786E2,4.285665E3,4.817294E3,1.3482024E3,8.916307E3,6.7259576E2,1.21511086E2,1.9413036E3,1.1410421E2,3.3259683E2,9.73068E1,1.45205965E1,2.2673727E2,2.6784033E3,1.6072615E3,1.8424385E3,2.9748557E3,4.718683E2,8.763341E2,4.6139775E3,4.3023286E3],"tree_param":{"num_deleted":"0","num_feature":"51","num_nodes":"31","size_leaf_vector":"1"}},{"base_weights":[3.590717E-3,-1.939924E-1,2.3038914E-2,-2.577683E-1,-8.032248E-2,-1.5563779E-2,8.9727975E-2,-2.955724E-1,-9.0944104E-2,-9.232342E-2,5.2547205E-2,7.199272E-2,-3.5700396E-2,-2.7590066E-2,1.17434025E-1,-1.5102741E-2,1.806197E-2,-1.1169966E-2,4.7232364E-3,-2.0818958E-2,-2.9362058E-3,2.8006488E-3,3.2843333E-2,-5.805295E-3,-5.518312E-4,-2.4017144E-3,1.9688474E-2,4.906465E-3,1.3065147E-2],"categories":[],"categories_nodes":[],"categories_segments":[],"categories_sizes":[],"default_left":[0,0,0,0,0,0,0,0,0,0,0,0,0,0,0,0,0,0,0,0,0,0,0,0,0,0,0,0,0],"id":41,"left_children":[1,3,5,7,9,11,13,15,17,19,-1,21,23,25,27,-1,-1,-1,-1,-1,-1,-1,-1,-1,-1,-1,-1,-1,-1],"loss_changes":[8.823577E1,1.4896072E1,5.381743E1,8.283119E0,1.0156986E1,2.3348042E1,2.4915356E1,4.6809998E0,6.034856E0,7.9688673E0,0E0,2.3106037E1,2.1348839E1,1.2639198E1,1.7194618E1,0E0,0E0,0E0,0E0,0E0,0E0,0E0,0E0,0E0,0E0,0E0,0E0,0E0,0E0],"parents":[2147483647,0,0,1,1,2,2,3,3,4,4,5,5,6,6,7,7,8,8,9,9,11,11,12,12,13,13,14,14],"right_children":[2,4,6,8,10,12,14,16,18,20,-1,22,24,26,28,-1,-1,-1,-1,-1,-1,-1,-1,-1,-1,-1,-1,-1,-1],"split_conditions":[1.355E0,1E0,1E0,3.1231195E-3,1.39627345E-2,3.8944202E1,4.5272135E-3,2.2757199E2,6.3855423E1,4.2106924E-3,5.2547205E-2,-6.321872E-3,4.561533E1,7.84E0,8.335228E1,-1.5102741E-2,1.806197E-2,-1.1169966E-2,4.7232364E-3,-2.0818958E-2,-2.9362058E-3,2.8006488E-3,3.2843333E-2,-5.805295E-3,-5.518312E-4,-2.4017144E-3,1.9688474E-2,4.906465E-3,1.3065147E-2],"split_indices":[0,42,42,7,6,49,14,28,25,5,0,6,2,0,26,0,0,0,0,0,0,0,0,0,0,0,0,0,0],"split_type":[0,0,0,0,0,0,0,0,0,0,0,0,0,0,0,0,0,0,0,0,0,0,0,0,0,0,0,0,0],"sum_hessian":[2.2960143E4,2.0566562E3,2.0903486E4,1.3166603E3,7.3999603E2,1.3240211E4,7.6632754E3,1.0727844E3,2.438759E2,7.33137E2,6.859031E0,2.4751926E3,1.0765018E4,1.4640272E3,6.1992485E3,1.0628348E3,9.94953E0,1.4213231E2,1.01743576E2,6.7803085E1,6.653339E2,2.4104314E3,6.476129E1,2.5260908E3,8.238927E3,1.3971251E3,6.690204E1,5.4673115E3,7.319368E2],"tree_param":{"num_deleted":"0","num_feature":"51","num_nodes":"29","size_leaf_vector":"1"}},{"base_weights":[-1.9306146E-3,1.5065877E-1,-1.0366651E-1,-2.621421E-1,1.8221444E-1,-4.3265354E-2,-2.003235E-1,-3.039297E-1,7.943969E-2,2.8787103E-1,9.769351E-2,1.0315989E-1,-9.638906E-2,-1.643711E-1,-3.229611E-1,-1.1156565E-2,-2.2376034E-2,4.466043E-2,-1.9628566E-3,1.124723E-2,1.86189E-2,1.2038726E-4,1.1254157E-2,8.097182E-3,-8.823168E-4,-1.6967139E-3,-8.139161E-3,-9.451777E-3,9.4332406E-4,-1.07698655E-2,-1.9590931E-2],"categories":[],"categories_nodes":[],"categories_segments":[],"categories_sizes":[],"default_left":[0,0,0,0,0,0,0,0,0,0,0,0,0,0,0,0,0,0,0,0,0,0,0,0,0,0,0,0,0,0,0],"id":42,"left_children":[1,3,5,7,9,11,13,15,17,19,21,23,25,27,29,-1,-1,-1,-1,-1,-1,-1,-1,-1,-1,-1,-1,-1,-1,-1,-1],"loss_changes":[3.531323E2,1.1858151E2,7.9671814E1,9.253834E0,7.5467865E1,6.535556E1,2.3088165E1,6.5867996E0,6.9195786E0,1.9893433E1,5.702936E1,1.5888008E1,2.5557404E1,1.8355705E1,8.720558E0,0E0,0E0,0E0,0E0,0E0,0E0,0E0,0E0,0E0,0E0,0E0,0E0,0E0,0E0,0E0,0E0],"parents":[2147483647,0,0,1,1,2,2,3,3,4,4,5,5,6,6,7,7,8,8,9,9,10,10,11,11,12,12,13,13,14,14],"right_children":[2,4,6,8,10,12,14,16,18,20,22,24,26,28,30,-1,-1,-1,-1,-1,-1,-1,-1,-1,-1,-1,-1,-1,-1,-1,-1],"split_conditions":[1.279597E5,3.3391432E6,1E0,9.142576E-2,2.1337695E0,2.863886E-2,4.778016E5,1.7863704E-3,8.0658775E-3,1E0,1E0,2.243E0,5E1,1E0,-6E1,-1.1156565E-2,-2.2376034E-2,4.466043E-2,-1.9628566E-3,1.124723E-2,1.86189E-2,1.2038726E-4,1.1254157E-2,8.097182E-3,-8.823168E-4,-1.6967139E-3,-8.139161E-3,-9.451777E-3,9.4332406E-4,-1.07698655E-2,-1.9590931E-2],"split_indices":[1,24,42,9,4,5,1,8,14,41,41,0,26,41,27,0,0,0,0,0,0,0,0,0,0,0,0,0,0,0,0],"split_type":[0,0,0,0,0,0,0,0,0,0,0,0,0,0,0,0,0,0,0,0,0,0,0,0,0,0,0,0,0,0,0],"sum_hessian":[2.2745768E4,9.098632E3,1.3647136E4,6.4561426E2,8.453018E3,8.399635E3,5.247501E3,5.7533997E2,7.0274315E1,3.7557205E3,4.6972974E3,2.235891E3,6.163743E3,4.0597E3,1.187801E3,3.6980515E2,2.055348E2,8.114857E0,6.2159454E1,2.1548303E3,1.6008901E3,2.6878442E3,2.009453E3,1.5038058E3,7.320853E2,3.176874E3,2.9868694E3,3.5780498E3,4.8165018E2,4.6521198E2,7.22589E2],"tree_param":{"num_deleted":"0","num_feature":"51","num_nodes":"31","size_leaf_vector":"1"}},{"base_weights":[-1.849485E-3,-1.3516913E-1,2.7137764E-2,1.5387343E-1,-1.7935027E-1,-2.2978123E-2,8.5380204E-2,5.990145E-1,1.10350125E-1,-2.2762941E-1,-8.774347E-2,1.16162576E-1,-5.1832158E-2,2.9722384E-1,7.223127E-2,1.209731E-2,4.016422E-2,-9.27223E-3,8.924075E-3,-9.821101E-3,-1.7397447E-2,-7.6200054E-3,1.2977849E-3,1.7185159E-2,4.8051826E-3,